[[[0.02276597172021866, 0.08136092871427536, 0.07971944659948349, -0.05814928561449051, -0.05726749449968338, -0.036807551980018616, -0.014519095420837402, 0.03216812014579773, 0.020907118916511536, -0.050434455275535583], [-0.01854606717824936, -0.06131547689437866, -0.059675075113773346, 0.015147559344768524, -0.05408816039562225, 0.07322397083044052, 0.07509743422269821, -0.08320635557174683, -0.023087963461875916, 0.08339213579893112], [-0.03494523838162422, -0.07768040895462036, 0.0088086798787117, 0.062194980680942535, 0.0664844885468483, -0.07660330832004547, 0.05683173984289169, 0.05220819264650345, 0.025021590292453766, 0.01856990158557892], [-0.05906694754958153, 0.057684965431690216, 0.08685988932847977, 0.03390093892812729, 0.04531966894865036, -0.0263807475566864, 0.06432778388261795, -0.006622426211833954, 0.04758261889219284, -0.04952000454068184], [-0.03190644085407257, -0.020313434302806854, 0.0377555787563324, -0.08433490246534348, -0.08571416139602661, -0.08090092986822128, -0.04408423975110054, -0.008653610944747925, 0.08221768587827682, 0.06620313972234726], [-0.0009991973638534546, -0.08030515164136887, -0.04227867349982262, -0.06061607599258423, -0.020086057484149933, 0.04929216951131821, 0.04831717163324356, -0.08059883862733841, -0.08651112020015717, -0.0848562940955162], [-0.047218188643455505, -0.024191677570343018, -0.08665315061807632, -0.08037561923265457, -0.06335282325744629, 0.06478982418775558, -0.0773007869720459, -0.03421228006482124, -0.08591312915086746, 0.0625220313668251], [-0.018811501562595367, -0.0001050606369972229, -0.013882823288440704, 0.05520578473806381, 6.012618541717529e-06, 0.0722540095448494, 0.047825299203395844, -0.01076287031173706, -0.002711683511734009, 0.04395381361246109], [0.02748599648475647, 0.036032021045684814, 0.04710782319307327, -0.04939364269375801, 0.012285217642784119, 0.04414474219083786, -0.0007092654705047607, -0.009248308837413788, 0.005702070891857147, -0.020676441490650177], [-0.04264841601252556, -0.0421476885676384, 0.004461415112018585, -0.05200304836034775, 0.004576794803142548, -0.04572686180472374, 0.006964772939682007, -0.01593158394098282, 0.04122024029493332, -0.08434145152568817], [-0.024640176445245743, -0.03164443001151085, 0.07238426059484482, -0.08145776391029358, 0.05008483678102493, -0.03191487863659859, -0.06589040905237198, 0.03366796672344208, 0.05068262666463852, 0.04234834760427475], [-0.06773953884840012, -0.04987194389104843, 0.06643233448266983, 0.03388430178165436, 0.07099487632513046, -0.04448828473687172, 0.05336771160364151, -0.03846704214811325, -0.007838785648345947, 0.08520365506410599], [-0.037095196545124054, -0.036845043301582336, 0.026164453476667404, -0.005421912297606468, 0.016010239720344543, -0.09580051153898239, -0.06300818175077438, -0.09154561907052994, 0.014839140698313713, -0.1159706562757492], [-0.010625622235238552, 0.06436797231435776, 0.07433968782424927, -0.09621311724185944, -0.1367703527212143, -0.02454693615436554, -0.04081118479371071, 0.007513259071856737, -0.11600546538829803, -0.11015775799751282], [0.038343191146850586, -0.0009217038750648499, -0.03380219638347626, -0.07969179004430771, 0.05699384585022926, 0.05471540614962578, -0.040777843445539474, 0.06628864258527756, 0.041219547390937805, 0.07210304588079453], [-0.011109139770269394, -0.05238145962357521, -0.0338498130440712, 0.011785759590566158, -0.0567098930478096, -0.08364839106798172, 0.029943570494651794, 0.01013968326151371, 0.004249243997037411, -0.06615963578224182], [0.055814944207668304, 0.08430976420640945, -0.06399008631706238, -0.053335968405008316, -0.0377584807574749, 0.013982906937599182, 0.008918851613998413, -0.03956879302859306, 0.008657358586788177, 0.0052686333656311035], [-0.008061565458774567, -0.02016369253396988, 0.08423750847578049, 0.06794632226228714, 0.049833543598651886, -0.03127578645944595, -0.04814111441373825, 0.007679201662540436, 0.026142239570617676, 0.03159128874540329], [0.08409025520086288, 0.04316473752260208, -0.03816291689872742, 0.027582019567489624, -0.0783555880188942, 0.06923127919435501, -0.019185177981853485, 0.029147543013095856, -0.04256395995616913, -0.08338279277086258], [0.030687056481838226, 0.07170594483613968, -0.07507108896970749, 0.06647739559412003, -0.014710105955600739, 0.021333128213882446, 0.05364245921373367, 0.0677163228392601, -0.08150947093963623, -0.06013364717364311], [-0.035205695778131485, 0.00153302401304245, 0.030803553760051727, -0.004502139985561371, -0.08425251394510269, -0.033986788243055344, -0.020632483065128326, -0.06777415424585342, -0.04052595794200897, 0.0005609765648841858], [0.05281571298837662, -0.01470695436000824, 0.07790843397378922, 0.028755106031894684, 0.058739565312862396, -0.08610067516565323, 0.020728379487991333, -0.08194141089916229, -0.037390291690826416, 0.04284576326608658], [0.04669628292322159, 0.07008903473615646, -0.00027326494455337524, -0.0583077073097229, -0.05274421349167824, 0.029131688177585602, -0.008795186877250671, 0.039225123822689056, -0.0672876387834549, 0.03409010171890259], [0.05141756683588028, -0.07599066197872162, -0.00029747188091278076, -0.0320284329354763, 0.06319422274827957, -0.020316004753112793, 0.08575368672609329, -0.04878043383359909, 0.042609862983226776, 0.007710888981819153], [-0.08152313530445099, 0.0808854028582573, 0.07247170060873032, 0.03436386585235596, -0.07816808670759201, 0.06796244531869888, 0.022816620767116547, 0.07916171103715897, 0.04080907255411148, 0.050928451120853424], [-0.03052492067217827, -0.032649926841259, 0.020207464694976807, -0.04042299464344978, 0.03769499808549881, 0.07244638353586197, 0.06227422505617142, 0.004125162959098816, -0.0393403135240078, -0.0709245577454567], [0.0855681374669075, 0.0516495481133461, -0.026910491287708282, -0.025145404040813446, -0.005149088799953461, -0.06521956622600555, -0.04890567809343338, 0.04861467331647873, 0.004496052861213684, 0.0017891079187393188], [-0.03774867579340935, 0.017936982214450836, 0.056233786046504974, -0.020527884364128113, 0.06542875617742538, -0.07259151339530945, -0.08524785935878754, -0.06919397413730621, 0.0489039346575737, -0.048320017755031586], [0.05929044634103775, -0.06832534819841385, 0.02358667552471161, -0.06436772644519806, -0.02296779304742813, 0.028277114033699036, -0.06294046342372894, -0.0257750041782856, 0.030165188014507294, -0.005148261785507202], [-0.060978151857852936, -0.03430328518152237, 0.06976556032896042, -0.01222839206457138, 0.028959333896636963, 0.0758088007569313, 0.03131505846977234, -0.07199183851480484, 0.06989947706460953, 0.08481038361787796], [0.025474049150943756, 0.008609585464000702, 0.014712527394294739, 0.010309599339962006, -0.06398996710777283, -0.040855493396520615, -0.01159030944108963, 0.0027908384799957275, 0.0833456739783287, -0.08060422539710999], [-0.0030228570103645325, -0.014865584671497345, -0.06229735165834427, -0.07928831875324249, -0.06941089034080505, 0.05837082117795944, -0.0347866453230381, -0.0027939453721046448, -0.06546087563037872, -0.01691868156194687], [0.013632912188768387, 0.008716813288629055, -0.029277075082063675, 0.019285235553979874, -0.10344704240560532, -0.06041952967643738, -0.012909975834190845, 0.022700339555740356, -0.022256800904870033, -0.015242239460349083], [-0.015954870730638504, 0.02202121540904045, -0.018610237166285515, 0.05385059490799904, -0.06879200041294098, -0.07470133900642395, 0.07560443878173828, 0.032636433839797974, -0.06622660905122757, -0.011661702767014503], [-0.06694000214338303, -0.010018317960202694, -0.07515713572502136, 0.0018795101204887033, -0.23029480874538422, 0.03510238602757454, 0.24296601116657257, -0.129561185836792, 0.037303242832422256, 0.035690002143383026], [-0.023829856887459755, 0.03794551640748978, -0.14147256314754486, -0.013175370171666145, -0.28004464507102966, -0.06903640180826187, 0.3168998956680298, -0.03675955533981323, -0.043701957911252975, -0.05059494078159332], [-0.11009521037340164, 0.04226930812001228, -0.14386549592018127, -0.10860923677682877, -0.3178907036781311, -0.1568431258201599, 0.3445369601249695, -0.13885456323623657, -0.0834997221827507, -0.14876726269721985], [-0.2371133714914322, -0.1635562777519226, -0.2757895588874817, -0.21535161137580872, -0.3325274884700775, -0.08490335941314697, 0.2969479262828827, -0.1443755328655243, -0.14282752573490143, -0.18744874000549316], [-0.2811357378959656, -0.10347786545753479, -0.44210290908813477, -0.23354114592075348, -0.4830344021320343, -0.2241327166557312, 0.44347530603408813, -0.2609940469264984, -0.33006778359413147, -0.3248893916606903], [-0.1809328943490982, -0.15104016661643982, -0.5342031121253967, -0.1705043464899063, -0.5768790245056152, -0.2564876675605774, 0.6031529307365417, -0.2656061053276062, -0.2811819016933441, -0.36289966106414795], [-0.12614794075489044, -0.12734101712703705, -0.6988779306411743, -0.2535993158817291, -0.6338493824005127, -0.3379647731781006, 0.6117690205574036, -0.3202480673789978, -0.47993284463882446, -0.37016165256500244], [-0.28487735986709595, -0.25047767162323, -0.6356196403503418, -0.4409589469432831, -0.6294226050376892, -0.3659616708755493, 0.6030243635177612, -0.22053152322769165, -0.5487878918647766, -0.36775726079940796], [-0.3772652745246887, -0.05103794485330582, -0.44102805852890015, -0.2661437690258026, -0.6061020493507385, -0.4808022379875183, 0.45823413133621216, -0.22982905805110931, -0.4426495432853699, -0.46215012669563293], [-0.28180813789367676, -0.18139417469501495, -0.2579095959663391, -0.281035453081131, -0.5684027075767517, -0.5593664050102234, 0.26575136184692383, -0.2055017352104187, -0.5022802352905273, -0.38424375653266907], [-0.4023434519767761, -0.1714111864566803, -0.13735662400722504, -0.34986162185668945, -0.6833481788635254, -0.6759913563728333, 0.18213222920894623, -0.20129378139972687, -0.5231211185455322, -0.3754540979862213], [-0.21475788950920105, -0.185567244887352, -0.24496081471443176, -0.2680368423461914, -0.6559504270553589, -0.6316326856613159, 0.41484957933425903, -0.15149155259132385, -0.48950305581092834, -0.2985023260116577], [-0.23709799349308014, -0.05370691791176796, -0.5008347034454346, -0.21524006128311157, -0.5253878831863403, -0.3050205409526825, 0.6839438676834106, -0.046742312610149384, -0.33081555366516113, -0.19984275102615356], [-0.18998095393180847, -0.01380209717899561, -0.3668082356452942, -0.16163133084774017, -0.4054793417453766, -0.3997950851917267, 0.45803648233413696, -0.17503301799297333, -0.21770378947257996, -0.24078795313835144], [-0.08831653743982315, -0.03823675960302353, -0.28761017322540283, -0.1621437519788742, -0.2757492661476135, -0.16640284657478333, 0.42627525329589844, -0.11958285421133041, -0.26896390318870544, -0.16242341697216034], [-0.04887793958187103, 0.027893291786313057, -0.11309369653463364, -0.06916002184152603, -0.24939918518066406, -0.14877504110336304, 0.25967660546302795, 0.02183053083717823, -0.07063865661621094, -0.17181487381458282], [0.05315509811043739, 0.054670680314302444, -0.12162619829177856, 0.017473217099905014, -0.15481367707252502, -0.07102938741445541, 0.10118357837200165, 0.03598169609904289, -0.006425854284316301, -0.13212622702121735], [-0.05122259259223938, 0.0798671767115593, -0.05648549646139145, -0.05370241403579712, -0.11229279637336731, 0.03802918642759323, 0.07596152275800705, -0.04421968758106232, -0.07450013607740402, -0.14548398554325104], [0.049947820603847504, -0.07744093239307404, 0.0673152431845665, -0.07989814877510071, 0.009499877691268921, 0.06998670846223831, 0.011643864214420319, -0.0741463154554367, 0.03780011832714081, 0.030180402100086212], [0.056997112929821014, 0.07311493903398514, 0.021735265851020813, 0.07577385753393173, 0.015169359743595123, 0.08040343970060349, -0.05088789016008377, 0.0010337233543395996, 0.01596088707447052, -0.0657428652048111], [0.04825512319803238, 0.066188283264637, -0.04468078166246414, -0.07281242311000824, 0.028561055660247803, -0.011024564504623413, -0.08406886458396912, -0.06778992712497711, -0.07562597095966339, 0.032928355038166046], [0.07291678339242935, 0.04461773484945297, 0.005916118621826172, 0.030034661293029785, 0.05739491432905197, -0.04908924549818039, 0.035687997937202454, -0.04970145598053932, -0.049723945558071136, 0.038796357810497284], [-0.07901103049516678, 0.08045465499162674, 0.06974633783102036, 0.058955900371074677, -0.07308338582515717, -0.048721782863140106, -0.03598510101437569, -0.07569538056850433, 0.07084657996892929, 0.07549002021551132], [0.0459539070725441, -0.0027843713760375977, 0.06701193004846573, 0.041525907814502716, 0.08023849874734879, -0.03687687963247299, -0.038463789969682693, 0.05248145014047623, 0.07163021713495255, -0.02706775814294815], [0.02377905137836933, -0.015836596488952637, -0.05566010996699333, 0.010602316819131374, 0.02376720868051052, -0.012454069219529629, -0.02007422223687172, 0.07693737745285034, -0.08853460103273392, -0.07111092656850815], [0.0126336719840765, 0.04045727103948593, -0.06528682261705399, -0.017471781000494957, -0.08017394691705704, -0.018426043912768364, 0.08303256332874298, -0.06088009104132652, -0.01256909966468811, 0.04776797443628311], [-0.050310153514146805, 0.0516975075006485, -0.10663886368274689, -0.04277936369180679, -0.15114597976207733, -0.07627919316291809, 0.11516200751066208, -0.1282019317150116, -0.14188618957996368, -0.09899714589118958], [-0.014846879988908768, -0.04062569886445999, -0.15181373059749603, -0.0036649524699896574, -0.10478664189577103, -0.07376815378665924, 0.22126929461956024, 0.016072914004325867, -0.06393539905548096, -0.05432310700416565], [-0.19687077403068542, 0.02477526292204857, -0.18594202399253845, -0.15013626217842102, -0.4239724278450012, -0.19686181843280792, 0.39920300245285034, -0.19456075131893158, -0.13889630138874054, -0.11386926472187042], [-0.2845020592212677, -0.15813817083835602, -0.35027140378952026, -0.31703057885169983, -0.4398420751094818, -0.23619535565376282, 0.4389432668685913, -0.2957799732685089, -0.44326120615005493, -0.23759835958480835], [-0.37173619866371155, -0.22613221406936646, -0.1826515644788742, -0.5952266454696655, -0.5999483466148376, -0.4402652382850647, 0.5901065468788147, -0.42966699600219727, -0.47968152165412903, -0.332133948802948], [-0.7280881404876709, -0.34957727789878845, -0.18964657187461853, -0.7371119260787964, -0.8434258103370667, -0.6308807730674744, 0.48159733414649963, -0.6712511777877808, -0.8698858618736267, -0.6416574120521545], [-0.9843569993972778, -0.30835723876953125, -0.13030456006526947, -0.7214387655258179, -0.964510977268219, -0.8246129751205444, 0.6240575909614563, -0.7401794195175171, -1.078877329826355, -0.6770471930503845], [-0.8555915951728821, -0.372143030166626, -0.12260901927947998, -0.839786946773529, -1.4841781854629517, -0.9810814261436462, 0.5950566530227661, -0.8672549724578857, -1.0875989198684692, -1.1063095331192017], [-0.8672143816947937, -0.4339543879032135, -0.077464759349823, -0.9862502813339233, -1.4098488092422485, -1.0163791179656982, 0.5813779830932617, -0.8583457469940186, -1.4109171628952026, -1.122615098953247], [-0.8339138031005859, -0.3288130462169647, -0.07919441163539886, -1.046791672706604, -1.2892177104949951, -1.327193021774292, 0.4126870930194855, -0.9086821675300598, -1.8856929540634155, -1.501676082611084], [-1.117203950881958, 0.013351996429264545, -0.2334660440683365, -0.9608461856842041, -1.253604531288147, -1.5075771808624268, 0.4076705574989319, -1.0081961154937744, -2.020501136779785, -1.495344638824463], [-1.1598795652389526, 0.005467753391712904, -0.12524493038654327, -1.0341777801513672, -1.3133524656295776, -1.4336209297180176, 0.23791061341762543, -0.9282394647598267, -2.2090160846710205, -1.525408148765564], [-1.1038856506347656, -0.14435619115829468, -0.16318820416927338, -1.0699234008789062, -1.2413514852523804, -1.1323165893554688, 0.20865732431411743, -0.7990334033966064, -1.935756802558899, -1.352457880973816], [-1.364213466644287, -0.3624691367149353, -0.18545134365558624, -0.8932719230651855, -1.3002263307571411, -0.8120182156562805, 0.24316374957561493, -0.7193089127540588, -1.5489909648895264, -1.2847421169281006], [-1.4523266553878784, -0.5792077779769897, -0.45932748913764954, -0.8746610283851624, -1.5704513788223267, -0.7609995007514954, 0.5062620043754578, -0.5879508852958679, -1.5012999773025513, -1.1937497854232788], [-1.4135925769805908, -0.6301670074462891, -0.7922084331512451, -0.9978066682815552, -1.1565560102462769, -0.7344261407852173, 0.69608473777771, -0.3989180028438568, -1.2388851642608643, -0.8746767640113831], [-1.140637993812561, -0.3517635762691498, -0.8286729454994202, -0.9311861991882324, -0.9695311188697815, -0.8178478479385376, 0.8038042783737183, -0.3005017638206482, -1.3765991926193237, -0.7744329571723938], [-0.9058693647384644, -0.5112467408180237, -0.7916573286056519, -0.7681757211685181, -0.842308521270752, -0.6291335225105286, 0.720754086971283, -0.1870739907026291, -0.88323974609375, -0.4679059684276581], [-0.6666105389595032, -0.30164292454719543, -0.716078519821167, -0.5385275483131409, -0.5809381008148193, -0.5163441896438599, 0.5583648085594177, -0.2524837255477905, -0.6854580640792847, -0.2641749680042267], [-0.36760735511779785, -0.28809377551078796, -0.3460109829902649, -0.3781448006629944, -0.4535847306251526, -0.3689839243888855, 0.41082456707954407, -0.04146731644868851, -0.45464807748794556, -0.26082029938697815], [-0.19423218071460724, -0.05416248366236687, -0.06543049216270447, -0.1370617300271988, -0.27856773138046265, -0.17254739999771118, 0.18555395305156708, 0.02012857422232628, -0.2586473822593689, 0.00023474034969694912], [-0.05871571600437164, 0.047069624066352844, -0.05143709108233452, -0.06377936899662018, -0.051922667771577835, -0.14935417473316193, 0.06938157975673676, -0.0010317451087757945, -0.11843068897724152, 0.07032269984483719], [-0.02224917709827423, -0.04759584739804268, 0.05757742375135422, 0.05004579573869705, -0.021070539951324463, -0.07502182573080063, 0.041557155549526215, 0.06156947463750839, 0.06963101774454117, -0.01050557941198349], [-0.08633854240179062, 0.0006587207317352295, -0.039288707077503204, 0.014721423387527466, -0.016400374472141266, -0.07808972150087357, -0.08672208338975906, -0.032554320991039276, 0.08468421548604965, 0.0793633684515953], [-0.011121608316898346, 0.07697970420122147, -0.06948427855968475, -0.04098156839609146, -0.004268459975719452, 0.03290572017431259, 0.0025826916098594666, -0.02476656064391136, 0.04421459883451462, 0.023589909076690674], [0.0655018761754036, 0.000818595290184021, -0.0710068941116333, 0.0672592893242836, 0.05415419489145279, 0.030936092138290405, 0.02546658366918564, -0.025294173508882523, -0.0789623111486435, -0.0569164901971817], [-0.009012850932776928, 0.05068517103791237, -0.0017779883928596973, 0.016349690034985542, -0.012666281312704086, 0.031634844839572906, 0.07583615183830261, 0.0054935067892074585, -0.04845025762915611, -0.005221310071647167], [-0.00895144697278738, 0.09481221437454224, -0.15761098265647888, -0.052452441304922104, -0.0894739106297493, -0.033743854612112045, 0.04777692258358002, 0.0063713425770401955, -0.18025436997413635, -0.07011470198631287], [-0.12669581174850464, -0.07121013849973679, -0.12468758225440979, -0.12406542152166367, -0.14177681505680084, -0.14939917623996735, 0.08351299911737442, -0.03055499866604805, -0.1486348807811737, -0.12927986681461334], [-0.1590626984834671, -0.17575064301490784, -0.06836424767971039, -0.17703573405742645, -0.22209981083869934, -0.282507061958313, 0.07696711272001266, -0.21670012176036835, -0.2913028299808502, -0.11216126382350922], [-0.3959905207157135, -0.19283424317836761, 0.10179343819618225, -0.15563775599002838, -0.4379807412624359, -0.40865224599838257, 0.19216524064540863, -0.3648022413253784, -0.6286558508872986, -0.3612741231918335], [-0.5512120723724365, -0.47016870975494385, 0.053201377391815186, -0.2605183720588684, -0.6422820091247559, -0.6957294940948486, 0.2768156826496124, -0.5647532343864441, -0.821739137172699, -0.535651445388794], [-0.5259292721748352, -0.7385730147361755, 0.036462634801864624, -0.1697942018508911, -0.8325678110122681, -0.7989090085029602, 0.24090100824832916, -0.7893099188804626, -1.0630319118499756, -0.795457124710083], [-0.577936053276062, -0.6707402467727661, 0.2667641043663025, -0.17071644961833954, -0.8652499318122864, -0.8227155804634094, 0.14252260327339172, -0.9090712666511536, -1.2291101217269897, -1.09579598903656], [-0.4381966292858124, -0.7255918383598328, 0.2534741461277008, -0.20104771852493286, -0.8929202556610107, -0.6393181085586548, 0.042383529245853424, -1.070264458656311, -1.3022637367248535, -1.199615240097046], [-0.2708290219306946, -0.8110043406486511, 0.11840668320655823, 0.08578166365623474, -1.0645912885665894, -0.6753835082054138, 0.08741728961467743, -1.0663825273513794, -1.3930646181106567, -1.6589959859848022], [-0.38511499762535095, -0.619906485080719, 0.1475747972726822, 0.06510000675916672, -1.2975445985794067, -0.48422083258628845, -0.05532534793019295, -1.0973364114761353, -1.110239028930664, -1.7464953660964966], [-0.3104684054851532, -0.22292602062225342, 0.16463162004947662, -0.03673986718058586, -1.2234488725662231, -0.4495799243450165, 0.03891324996948242, -1.2959160804748535, -0.7940338253974915, -1.935057520866394], [-0.263986200094223, -0.3279445469379425, 0.09845899045467377, 0.08609184622764587, -1.0150210857391357, -0.42963433265686035, 0.03484014421701431, -1.4190928936004639, -0.9826663732528687, -1.8922251462936401], [-0.38067924976348877, -0.22483254969120026, -0.08644124120473862, -0.02888462506234646, -0.9093579053878784, -0.2217635214328766, -0.029949400573968887, -1.3881930112838745, -0.8075509071350098, -2.097032070159912], [-0.2659015953540802, -0.22218431532382965, -0.031123610213398933, -0.10883218795061111, -0.9277872443199158, -0.3111186921596527, -0.17700760066509247, -1.2815771102905273, -0.7658899426460266, -2.0261614322662354], [-0.2791203260421753, -0.5056744813919067, -0.14253020286560059, -0.026383543387055397, -0.8033031821250916, -0.21445447206497192, -0.0391455739736557, -1.2038801908493042, -0.7778782844543457, -1.665662169456482], [-0.5189090967178345, -0.5323814153671265, -0.3726655840873718, -0.1548977494239807, -0.699632465839386, -0.14435027539730072, -0.04341613128781319, -1.1238715648651123, -0.7173281311988831, -1.649924874305725], [-0.6011220216751099, -0.6470767259597778, -0.40587204694747925, -0.25394538044929504, -0.4339835047721863, -0.12344614416360855, 0.09853281825780869, -0.984558641910553, -0.8447358012199402, -1.47438383102417], [-0.550125777721405, -0.6585386991500854, -0.4447774589061737, -0.2074064314365387, -0.2824867069721222, -0.15646889805793762, 0.039981771260499954, -0.7837141752243042, -1.0539746284484863, -1.2753146886825562], [-0.6672739386558533, -0.44450539350509644, -0.5027836561203003, -0.38465219736099243, -0.17914094030857086, -0.007467771880328655, 0.1437620371580124, -0.6245812773704529, -0.6175523996353149, -1.1454147100448608], [-0.6793687343597412, -0.49336910247802734, -0.6426026821136475, -0.5838034152984619, -0.19817079603672028, -0.07233421504497528, 0.2714245021343231, -0.4397129416465759, -0.6447077393531799, -0.80362468957901], [-0.5389467477798462, -0.5584275722503662, -0.802377462387085, -0.736962616443634, -0.26148223876953125, -0.2513166666030884, 0.23061923682689667, -0.2357441484928131, -0.491384893655777, -0.41754525899887085], [-0.5433157682418823, -0.437548965215683, -0.42738479375839233, -0.46978819370269775, -0.31337037682533264, -0.10470447689294815, 0.09286009520292282, -0.2365064024925232, -0.4488380253314972, -0.23928892612457275], [-0.1759200543165207, -0.2716139554977417, -0.14616675674915314, -0.09284177422523499, -0.3188383877277374, -0.17914055287837982, 0.17825108766555786, -0.07349394261837006, -0.13674892485141754, -0.12539872527122498], [0.0033323303796350956, -0.11634442210197449, -0.006874059326946735, -0.03539736568927765, -0.058184314519166946, -0.0539141409099102, 0.05375946685671806, -0.09167443960905075, -0.10600529611110687, 0.058257490396499634], [0.011019200086593628, -0.02495899796485901, 0.06205078214406967, -0.013163544237613678, -0.08011000603437424, 0.04172641783952713, -0.05986856669187546, -0.009682655334472656, -0.018048055469989777, -0.0018678009510040283], [-0.033531323075294495, -0.03468063473701477, 0.05398436635732651, 0.035806842148303986, 0.01915723830461502, -0.06068763881921768, 0.05419210344552994, -0.0002790689468383789, -0.07828671485185623, 0.05111924558877945], [-0.017594728618860245, -0.03709650784730911, -0.053609736263751984, 0.03533783182501793, -0.028741512447595596, -0.05892065539956093, 0.039614878594875336, -0.08398741483688354, -0.023505721241235733, 0.05110710859298706], [0.03654012084007263, 0.03518987447023392, -0.09342912584543228, 0.012753024697303772, -0.11098109930753708, -0.17715875804424286, -0.13658028841018677, 0.0061018499545753, -0.04636938497424126, -0.09196674823760986], [-0.12603089213371277, -0.06078702583909035, -0.1484965682029724, 0.016474097967147827, -0.17606040835380554, -0.12305344641208649, -0.11138875037431717, 0.01972162537276745, -0.16589629650115967, -0.042029719799757004], [-0.2532215416431427, 0.004643506836146116, -0.19965694844722748, 0.06449094414710999, -0.14181646704673767, -0.5667165517807007, -0.2545495629310608, -0.1742601841688156, -0.37938186526298523, -0.31433117389678955], [-0.7189376354217529, -0.3457835912704468, -0.1300136297941208, 0.15236428380012512, -0.06288125365972519, -0.482597291469574, -0.14245836436748505, -0.4153842628002167, -0.7040392160415649, -0.4132516086101532], [-0.4741174280643463, -0.49629953503608704, 0.04515304043889046, 0.05656464770436287, -0.16904978454113007, -0.43197566270828247, -0.055849961936473846, -0.6700893044471741, -1.1258405447006226, -0.6057578325271606], [-0.43426987528800964, -0.6110996603965759, -0.06676890701055527, 0.14318828284740448, -0.4078882932662964, -0.39016538858413696, -0.1790705919265747, -0.7419938445091248, -0.6884658932685852, -1.0048741102218628], [-0.359661340713501, -0.40325841307640076, 0.01268233172595501, 0.17083372175693512, -0.43281885981559753, -0.5804926753044128, -0.1495455950498581, -0.9916599988937378, -0.34642577171325684, -1.4727050065994263], [-0.3184276521205902, -0.34031638503074646, 0.11839720606803894, -0.011966078542172909, -0.5382835268974304, -0.3610922396183014, -0.12462972849607468, -1.2891898155212402, -0.2650448679924011, -1.5656635761260986], [-0.15226681530475616, -0.2815835177898407, 0.07706404477357864, 0.10891567170619965, -0.6652504801750183, -0.33858156204223633, -0.06332305073738098, -1.5076696872711182, -0.2752011716365814, -1.4543906450271606], [-0.17972183227539062, -0.3079380989074707, 0.06755825132131577, 0.16359873116016388, -0.6224724054336548, -0.16027507185935974, -0.3390878140926361, -1.0996061563491821, -0.10376249253749847, -1.3793234825134277], [-0.2741248607635498, -0.2831360101699829, 0.055216092616319656, 0.1308179348707199, -0.5342604517936707, -0.29590675234794617, -0.29352521896362305, -1.3573908805847168, -0.05704522877931595, -1.1577204465866089], [-0.17331856489181519, -0.027766436338424683, 0.07948175817728043, 0.11784656345844269, -0.4503784775733948, -0.279937207698822, -0.2342534065246582, -1.4758169651031494, -0.040346063673496246, -1.0494868755340576], [-0.2724764049053192, -0.05271659046411514, 0.04776052385568619, 0.06827802956104279, -0.5457445979118347, -0.14417457580566406, -0.2626509666442871, -1.406062126159668, 0.11698083579540253, -1.050391435623169], [-0.01658429205417633, 0.00018685018585529178, -0.023306535556912422, 0.057677555829286575, -0.5782546401023865, -0.03810212388634682, -0.21071884036064148, -1.7960333824157715, -0.02029694803059101, -1.0357414484024048], [-0.17951510846614838, -0.17479346692562103, -0.019995970651507378, 0.05131830647587776, -0.3326775133609772, -0.0741296336054802, -0.11976882815361023, -2.0460636615753174, 0.06214634329080582, -1.3139336109161377], [-0.13116353750228882, -0.1819659173488617, -0.12789788842201233, -0.015209242701530457, -0.40724867582321167, 0.021483298391103745, -0.07186766713857651, -2.528613805770874, -0.11879976838827133, -1.5274778604507446], [-0.1480179727077484, -0.2251478135585785, -0.17069578170776367, -0.03220227733254433, -0.25772354006767273, 0.011424988508224487, -0.1208166554570198, -2.4071948528289795, -0.13220717012882233, -1.5173561573028564], [-0.1361294835805893, 0.03500969335436821, -0.2655576765537262, -0.023977993056178093, -0.009583346545696259, -0.046395812183618546, 0.049681998789310455, -2.077767848968506, -0.09894725680351257, -1.8329843282699585], [-0.2763713300228119, 0.05400132015347481, -0.3241311311721802, -0.31119728088378906, 0.10829461365938187, -0.21892590820789337, 0.046712253242731094, -1.9883650541305542, -0.03365357220172882, -1.9062319993972778], [-0.32363161444664, -0.027923639863729477, -0.5369169116020203, -0.4579649865627289, 0.07137922197580338, -0.05922754481434822, 0.11875785887241364, -1.1450867652893066, -0.16123896837234497, -1.9451760053634644], [-0.3248676657676697, -0.008867486380040646, -0.7772312760353088, -0.5080044865608215, 0.12208779901266098, -0.1388109177350998, 0.10173087567090988, -0.9884576797485352, -0.2559765577316284, -1.625008225440979], [-0.34673449397087097, -0.23617814481258392, -0.9724960327148438, -1.0401142835617065, 0.09853904694318771, 0.07722071558237076, 0.13252070546150208, -0.9996501207351685, -0.49933087825775146, -1.3969653844833374], [-0.6068075895309448, -0.37196409702301025, -1.0420418977737427, -1.2290048599243164, -0.12616050243377686, 0.1693388670682907, -0.24930986762046814, -0.5564812421798706, -0.4051711857318878, -0.9569638967514038], [-0.5961238741874695, -0.5425496697425842, -0.5623788237571716, -0.8222412467002869, -0.2504464089870453, 0.13537320494651794, -0.3142763376235962, -0.4077948033809662, -0.2545402944087982, -0.4965559244155884], [-0.3013284206390381, -0.19982677698135376, -0.29365795850753784, -0.11901048570871353, -0.10437282919883728, -0.018703369423747063, -0.17899180948734283, -0.04699984937906265, -0.025259889662265778, -0.18077312409877777], [-0.10864900797605515, -0.04053981974720955, -0.134954035282135, -0.05868007242679596, -0.0800597295165062, -0.0786433294415474, -0.04628964141011238, -0.0866832286119461, 0.028284190222620964, 0.010225864127278328], [-0.0715642049908638, -0.04506213217973709, -0.013052769005298615, 0.057202212512493134, 0.056416235864162445, 0.017874889075756073, 0.04110872000455856, -0.06804893165826797, -0.021662622690200806, -0.022894464433193207], [-0.007261604070663452, 0.054358623921871185, -0.06048040837049484, 0.019059933722019196, 0.07525718957185745, -0.01819676160812378, 0.0759873315691948, -0.03172473981976509, -0.02447868511080742, 0.0037754029035568237], [-0.21725969016551971, 0.07530704140663147, -0.17993339896202087, -0.01692885160446167, -0.09461063146591187, -0.1394807994365692, 0.04213608428835869, 0.016019418835639954, -0.1618482768535614, 0.02553599514067173], [-0.1223568543791771, -0.009656659327447414, -0.18870306015014648, 0.10447519272565842, -0.22376668453216553, -0.33512529730796814, -0.3133672773838043, -0.2548316717147827, -0.524078905582428, -0.2195080667734146], [-0.5501118302345276, -0.06912150979042053, -0.2625444531440735, 0.2883352041244507, -0.15796856582164764, -0.5897946953773499, -0.2860059440135956, -0.3782956004142761, -0.7717397212982178, -0.6620566844940186], [-0.5067788362503052, -0.3453221619129181, -0.12483857572078705, 0.1545134037733078, 0.03847398981451988, -0.5801035165786743, -0.3313317596912384, -0.3402436375617981, -0.8241196870803833, -0.9804214239120483], [-0.3799649477005005, -0.32759571075439453, -0.009857136756181717, 0.2065703570842743, -0.09620792418718338, -0.4230998456478119, -0.3241840600967407, -0.3430171310901642, -0.5278857946395874, -1.4326725006103516], [-0.29587480425834656, -0.5371659994125366, -0.12984293699264526, 0.04694781452417374, -0.2505473494529724, -0.301500141620636, -0.14447122812271118, -0.2797107696533203, -0.3410871624946594, -1.3770502805709839], [-0.15229828655719757, -0.5550163388252258, 0.03856661543250084, 0.015636859461665154, -0.2983873784542084, -0.27283331751823425, -0.14702285826206207, -0.1314796358346939, -0.22457648813724518, -1.222041130065918], [-0.10135472565889359, -0.44868671894073486, -0.06544379889965057, 0.039555083960294724, -0.06426798552274704, -0.18823477625846863, -0.2026953399181366, -0.15025848150253296, -0.2219003438949585, -0.9134001135826111], [-0.10449732840061188, -0.31089380383491516, -0.039489056915044785, -0.02501196786761284, -0.25320321321487427, -0.032791804522275925, -0.14687597751617432, -0.3226829469203949, -0.15554696321487427, -0.3984953463077545], [-0.0430450439453125, -0.34397897124290466, 0.09965495020151138, 0.002203903393819928, -0.23138995468616486, -0.09791463613510132, -0.38610950112342834, -0.40295135974884033, -0.028075413778424263, -0.05858307331800461], [-0.1996445208787918, -0.29581350088119507, 0.0666559711098671, 0.016515010967850685, -0.24225953221321106, -0.10501798242330551, -0.35330402851104736, -0.2644101679325104, 0.0210842527449131, -0.03041873872280121], [0.042589571326971054, -0.09055028855800629, -0.015389926731586456, 0.010157803073525429, -0.2930827736854553, -0.15618008375167847, -0.2612771987915039, -0.4128287136554718, 0.05631408095359802, -0.07210765033960342], [0.10405285656452179, -0.11077283322811127, 0.08462759852409363, -0.024332091212272644, -0.13840961456298828, -0.18812663853168488, -0.1346149742603302, -0.4242898225784302, 0.02860579639673233, -0.16461420059204102], [-0.04152954742312431, -0.08594416826963425, 0.035835523158311844, 0.05907976254820824, -0.07868105173110962, -0.20998412370681763, -0.20025674998760223, -0.5738104581832886, -0.00205050827935338, -0.2825564742088318], [0.04157169163227081, -0.19175229966640472, 0.07764246314764023, 0.03538231551647186, -0.06279518455266953, -0.005548795685172081, -0.12168779969215393, -0.49295252561569214, 0.10760032385587692, -0.4640991985797882], [0.025897562503814697, -0.37219464778900146, 0.10492023825645447, -0.10706932842731476, -0.050903674215078354, 0.01418638788163662, -0.07488259673118591, -0.7437490224838257, 0.05569111928343773, -0.45851248502731323], [0.04008329659700394, -0.14134877920150757, 0.030736034736037254, -0.010064993984997272, 0.021951856091618538, 0.07471359521150589, -0.005484529305249453, -0.869251012802124, -0.07209916412830353, -0.38320791721343994], [-0.012288828380405903, -0.10118603706359863, -0.1593238115310669, -0.11022840440273285, -0.006045322399586439, -0.06745098531246185, 0.11840350925922394, -1.063960313796997, -0.04351722076535225, -0.4785778820514679], [-0.18111048638820648, -0.04412831366062164, -0.09308827668428421, -0.25354644656181335, -0.08417093008756638, 0.04942537471652031, 0.028661929070949554, -1.3609271049499512, -0.03138720989227295, -0.5282952189445496], [-0.08130428194999695, 0.07852593064308167, -0.1965886354446411, -0.32109907269477844, -0.027899889275431633, -0.008633199147880077, 0.01702992059290409, -1.4983124732971191, -0.0677294209599495, -0.7944912314414978], [-0.2158760279417038, 0.00708745839074254, -0.3554123640060425, -0.43597158789634705, 0.049783408641815186, -0.05298559367656708, 0.09132315218448639, -1.43935227394104, -0.33237388730049133, -1.2522969245910645], [-0.4666084051132202, -0.06533204019069672, -0.8078607320785522, -0.7357690334320068, 0.2472739964723587, 0.004669895861297846, 0.1498199850320816, -1.5500683784484863, -0.38719213008880615, -2.530532121658325], [-0.8384005427360535, -0.26864972710609436, -1.2104567289352417, -1.226809024810791, -0.014055418781936169, 0.13959914445877075, 0.018945982679724693, -1.3911547660827637, -0.36567506194114685, -2.106206178665161], [-1.004670262336731, -0.615646481513977, -0.9728254079818726, -1.3226661682128906, -0.21486905217170715, 0.280026912689209, -0.3301955461502075, -0.8819767832756042, -0.0790516585111618, -1.2554481029510498], [-0.5817021727561951, -0.27727237343788147, -0.5209712386131287, -0.5683536529541016, -0.34711170196533203, 0.36807239055633545, -0.2671201825141907, -0.4310946464538574, -0.27767571806907654, -0.6066423654556274], [-0.13639500737190247, -0.060890842229127884, -0.025323115289211273, -0.07903891801834106, -0.09592298418283463, 0.045377034693956375, -0.08174331486225128, -0.0003891667874995619, -0.030885661020874977, 0.020777562633156776], [-0.04608605429530144, -0.000321120023727417, -0.07859557121992111, -0.018372967839241028, -0.0636826679110527, 0.028837859630584717, 0.013838909566402435, 0.06171158701181412, 0.033090680837631226, -0.054268285632133484], [-0.041746836155653, -0.04110978543758392, -0.03127286583185196, -0.012674766592681408, -0.038527246564626694, 0.034582387655973434, 0.02224193513393402, 0.02449067309498787, -0.028825562447309494, -0.025348182767629623], [-0.26022017002105713, -0.039709363132715225, -0.1421956866979599, -0.08410314470529556, -0.19409549236297607, -0.20396322011947632, -0.10004264116287231, 0.13727886974811554, -0.3446650803089142, -0.16551704704761505], [-0.4461733102798462, -0.028787886723876, -0.12006353586912155, 0.15002305805683136, -0.24997371435165405, -0.5898289084434509, -0.2970077097415924, 0.0758376270532608, -0.818946123123169, -0.5383646488189697], [-0.6388494372367859, -0.23609444499015808, -0.11755181849002838, 0.16967706382274628, -0.0595845989882946, -0.7240127325057983, -0.4594670236110687, -0.0014342652866616845, -0.5838621258735657, -0.8183503746986389], [-0.43805038928985596, -0.4682495594024658, -0.05284702032804489, 0.06437739729881287, -0.060385726392269135, -0.5586998462677002, -0.37457573413848877, 0.054478276520967484, -0.5693038702011108, -1.0807775259017944], [-0.19937686622142792, -0.4201486110687256, -0.00020584168669302016, 0.03078274428844452, -0.14876261353492737, -0.28284913301467896, -0.37418970465660095, 0.08687066286802292, -0.5203823447227478, -0.7064099311828613], [-0.22217883169651031, -0.5016782283782959, -0.026746630668640137, -0.052297405898571014, -0.08141712844371796, -0.20754998922348022, -0.16560304164886475, 0.07917121052742004, -0.19710487127304077, -0.8457857370376587], [-0.23484225571155548, -0.5949037075042725, -0.032809797674417496, -0.08265370875597, -0.12814058363437653, -0.11545822769403458, -0.1264970451593399, 0.12203752249479294, -0.1539791375398636, -0.45378395915031433], [-0.32707908749580383, -0.4469720721244812, 0.03146251663565636, 0.06449271738529205, -0.18855272233486176, -0.2090533971786499, -0.22392918169498444, 0.08644331991672516, -0.1522408425807953, -0.15220294892787933], [-0.12051116675138474, -0.2764728367328644, -0.044931355863809586, 0.08955343067646027, -0.2916015088558197, -0.0729798749089241, -0.2458110749721527, 0.0726635530591011, -0.21481037139892578, -0.12505753338336945], [-0.15067119896411896, -0.28780731558799744, -0.0919559970498085, -0.02063187211751938, -0.2659561336040497, -0.04972207546234131, -0.3020893633365631, 0.1681371033191681, -0.061423394829034805, 0.09247463196516037], [-0.06297725439071655, -0.2981003224849701, 0.007126601412892342, -0.014121348969638348, -0.3579549193382263, -0.044524531811475754, -0.1480105221271515, 0.015067769214510918, 0.05833670496940613, 0.06770199537277222], [-0.023283936083316803, -0.3325955867767334, 0.03823545575141907, 0.11915435642004013, -0.4166813790798187, -0.07430003583431244, -0.24442094564437866, -0.05601182207465172, -0.05693960189819336, 0.1928478181362152], [0.07972332090139389, -0.2876059412956238, -0.0001655191881582141, -0.019959190860390663, -0.5352134108543396, -0.03030557930469513, -0.14099684357643127, -0.11461012065410614, 0.0236658975481987, 0.2334102988243103], [-0.014193929731845856, -0.30598700046539307, 0.1019463837146759, 0.1043304055929184, -0.42602166533470154, -0.053859643638134, -0.08816089481115341, -0.0680125281214714, 0.08742253482341766, 0.2259635478258133], [0.001698332722298801, -0.4012250304222107, 0.04247554764151573, 0.07724560797214508, -0.46485719084739685, -0.10384131222963333, -0.17323602735996246, -0.07644936442375183, 0.025732535868883133, 0.23783384263515472], [0.11743024736642838, -0.406620591878891, -0.05564339458942413, -0.05404537171125412, -0.3415597975254059, -0.08756157755851746, -0.18699203431606293, 0.02942175790667534, 0.0015320117818191648, 0.1410135179758072], [0.09498602896928787, -0.12958066165447235, -0.11003537476062775, 0.08262467384338379, -0.4016653895378113, 0.03169025480747223, -0.14118723571300507, -0.11393347382545471, -0.13957811892032623, 0.16703757643699646], [0.10486747324466705, -0.23664475977420807, -0.18278324604034424, -0.19651253521442413, -0.19984830915927887, 0.08279458433389664, -0.04764530807733536, -0.17377987504005432, 0.07648330181837082, 0.036113839596509933], [-0.09252677857875824, -0.16290877759456635, -0.1471855640411377, -0.15880610048770905, -0.23666006326675415, -0.004906191024929285, -0.10389228910207748, -0.19480693340301514, -0.02915324456989765, -0.10915908962488174], [0.006322965957224369, -0.012269974686205387, -0.11851873248815536, -0.1653251051902771, -0.15409553050994873, -0.12187418341636658, 0.03159741312265396, -0.13614708185195923, -0.1157359704375267, -0.2560228705406189], [0.010898685082793236, -0.175628200173378, -0.325128436088562, -0.31706130504608154, 0.04373759776353836, -0.02112213708460331, -0.15467104315757751, -0.2792847752571106, -0.2332223355770111, -0.5852901339530945], [-0.18154826760292053, -0.14485138654708862, -0.7369986176490784, -0.5457908511161804, 0.22252033650875092, 0.04723425209522247, -0.14845791459083557, -0.7625133395195007, -0.13417811691761017, -0.9775424003601074], [-0.7686849236488342, -0.381803035736084, -1.3062551021575928, -1.237863540649414, -0.006934231147170067, 0.3733501434326172, -0.35948577523231506, -1.2174996137619019, -0.16976463794708252, -1.3472461700439453], [-1.175088882446289, -1.0142139196395874, -1.4298133850097656, -1.6472818851470947, -0.14520834386348724, 0.3222202658653259, -0.4740270972251892, -1.2285691499710083, 0.0052037350833415985, -1.1805323362350464], [-0.7944145202636719, -0.47902363538742065, -0.6357049942016602, -0.7986758351325989, -0.4682926535606384, 0.3545258939266205, -0.5727739930152893, -0.7839913368225098, -0.19885194301605225, -0.808941662311554], [-0.26534518599510193, -0.044891368597745895, -0.11055897176265717, -0.19761542975902557, -0.33044883608818054, 0.10111664980649948, -0.07984892278909683, -0.20880627632141113, -0.163983553647995, -0.19835859537124634], [0.07632271200418472, -0.0005306784878484905, -0.007044053636491299, -0.03053969144821167, 0.03556382656097412, -0.034028925001621246, -0.055817682296037674, -0.06105761229991913, -6.446360202971846e-05, 0.03520386666059494], [-0.19160954654216766, -0.1542709469795227, -0.22685956954956055, -0.01525232195854187, -0.06544194370508194, -0.1569036841392517, -0.04343080148100853, -0.06018558144569397, -0.18510593473911285, -0.20101508498191833], [-0.139004647731781, -0.14661109447479248, -0.302035927772522, -0.30696558952331543, -0.360790491104126, -0.3044283390045166, -0.1377333402633667, 0.3883844017982483, -0.38301384449005127, -0.4945065677165985], [-0.5150667428970337, -0.17144779860973358, -0.24331071972846985, 0.1428825557231903, -0.2536257803440094, -0.7419072985649109, -0.35758528113365173, 0.19455362856388092, -0.7980369329452515, -0.7250787019729614], [-0.708138644695282, -0.3893045485019684, 0.0763019397854805, 0.1980118304491043, 0.00689378147944808, -0.9293375611305237, -0.44869136810302734, -0.003982592839747667, -0.3360133767127991, -0.8590705394744873], [-0.33763259649276733, -0.5447714328765869, 0.01512706559151411, 0.10677578300237656, -0.0081099858507514, -0.6029863357543945, -0.2797737121582031, 0.07573352009057999, -0.39225414395332336, -0.9784871935844421], [-0.10958551615476608, -0.6041893362998962, 0.061214569956064224, 0.06668730825185776, -0.13670364022254944, -0.30922144651412964, -0.4247846305370331, 0.12293850630521774, -0.14562436938285828, -0.6635745167732239], [-0.17290501296520233, -0.5575827956199646, -0.11183569580316544, -0.033457279205322266, -0.07129386067390442, -0.028307577595114708, -0.09373664855957031, 0.12362098693847656, -0.10487411171197891, -0.5271172523498535], [-0.3908115029335022, -0.5346040725708008, 0.011589175090193748, 0.01909957267343998, -0.2266434133052826, 0.07129732519388199, -0.13905993103981018, 0.09958107024431229, 0.06761066615581512, -0.20357413589954376], [-0.09486979991197586, -0.459500789642334, -0.0665837898850441, 0.0017289575189352036, -0.11456230282783508, -0.01403126772493124, -0.236372172832489, 0.12577849626541138, -0.10633139312267303, -0.19059965014457703], [-0.05104246735572815, -0.2667372524738312, 0.025420762598514557, 0.022710833698511124, -0.1746435910463333, 0.08927949517965317, -0.24783089756965637, 0.2367977648973465, -0.007874874398112297, -0.08806458115577698], [0.01387024112045765, -0.2084663212299347, 0.07191821932792664, -0.001306341029703617, -0.3512195348739624, 0.06330882757902145, -0.16522499918937683, 0.10952235758304596, -0.09937803447246552, -0.02592390589416027], [-0.046460751444101334, -0.1603504717350006, -0.10351510345935822, 0.03888614475727081, -0.4661572277545929, 0.015062043443322182, -0.13714228570461273, 0.1585436910390854, -0.15432485938072205, 0.13146381080150604], [0.006314728409051895, -0.17165425419807434, 0.06598597019910812, 0.08867830038070679, -0.42106497287750244, -0.0976768434047699, -0.188105508685112, 0.040769439190626144, -0.07471638172864914, 0.2594643831253052], [0.07967446744441986, -0.18266794085502625, 0.02278299629688263, 0.22328028082847595, -0.44648829102516174, 0.006963599938899279, -0.23030759394168854, -0.07105202227830887, -0.14244821667671204, 0.38864046335220337], [-0.008308014832437038, -0.3841501474380493, -0.1284271627664566, 0.07650601863861084, -0.5096174478530884, -0.14852042496204376, -0.16201525926589966, -0.0630025640130043, 0.109711192548275, 0.38249149918556213], [0.10944163799285889, -0.30880358815193176, -0.0015585608780384064, -0.0033031029161065817, -0.49544069170951843, 0.01441803015768528, -0.2965126633644104, 0.053420331329107285, -0.04176246374845505, 0.2658906579017639], [0.2247159332036972, -0.2907263934612274, -0.2621058523654938, 0.0341595783829689, -0.3033474087715149, 0.04528696835041046, -0.20753498375415802, 0.1773158311843872, -0.07023405283689499, 0.2087806910276413], [0.11041468381881714, -0.2816249430179596, -0.10344075411558151, -0.07460949569940567, -0.2161617875099182, -0.005408270284533501, -0.32550835609436035, 0.16945983469486237, 0.06347387284040451, 0.025957947596907616], [0.13066868484020233, -0.1350327432155609, -0.07393430918455124, 0.012426028959453106, -0.15929870307445526, 0.04775913432240486, -0.3210327625274658, 0.05912823602557182, -0.046583276242017746, -0.0058815972879529], [-0.0033920544665306807, -0.0628790408372879, -0.19172602891921997, -0.03343897685408592, -0.19889718294143677, 0.060832396149635315, -0.3322973847389221, 0.059772785753011703, -0.029870180413126945, -0.08671274036169052], [-0.06097980961203575, -0.21042154729366302, -0.1646897792816162, -0.24742953479290009, -0.17271217703819275, 0.026394981890916824, -0.21968942880630493, -0.07991914451122284, -0.037950899451971054, -0.1048857569694519], [-0.037526506930589676, -0.2933664917945862, -0.07994269579648972, -0.3369178771972656, -0.007086396217346191, -0.034336157143116, -0.3328119218349457, -0.1349937468767166, -0.03739895299077034, -0.3369176983833313], [-0.00508271437138319, -0.46409085392951965, -0.6254796385765076, -0.5409788489341736, 0.06260177493095398, 0.14733511209487915, -0.35397690534591675, -0.3144579827785492, 0.02400750108063221, -0.5429052710533142], [-0.4730369448661804, -0.7687888741493225, -1.293445110321045, -1.3161026239395142, -0.18439164757728577, 0.41142210364341736, -0.42859458923339844, -0.5949467420578003, -0.03495793044567108, -0.9158002138137817], [-1.3892725706100464, -1.0456854104995728, -1.2693135738372803, -1.8451452255249023, -0.26857250928878784, 0.5408564209938049, -0.6896696090698242, -0.9918938875198364, -0.20227624475955963, -1.1154311895370483], [-0.9898848533630371, -0.6118629574775696, -0.776035487651825, -0.8132582306861877, -0.23303700983524323, 0.13652174174785614, -0.5915164351463318, -1.1161994934082031, -0.12009011954069138, -0.8667111992835999], [-0.15479202568531036, -0.22844722867012024, -0.18801653385162354, -0.2528226971626282, -0.3699744641780853, 0.15477527678012848, -0.16041986644268036, -0.30750688910484314, -0.06298495084047318, -0.32298171520233154], [0.026901043951511383, 0.021902618929743767, 0.024747714400291443, -0.11784446239471436, -0.11375386267900467, -0.09081317484378815, -0.11091771721839905, 0.033823173493146896, -0.005315120331943035, -0.06671816110610962], [-0.12808525562286377, -0.12550972402095795, -0.08289623260498047, -0.18570224940776825, -0.2694593369960785, -0.26979026198387146, -0.14359767735004425, 0.25861069560050964, -0.28082144260406494, -0.3762434720993042], [-0.17533047497272491, -0.17833919823169708, -0.3078453540802002, -0.3427771329879761, -0.5509289503097534, -0.38867494463920593, -0.28398630023002625, 0.4493703842163086, -0.6670714616775513, -0.6600897908210754], [-0.40362784266471863, -0.279655784368515, -0.3352449834346771, -0.04725443944334984, -0.3331092298030853, -0.9033803939819336, -0.5926118493080139, 0.3456060290336609, -0.5677431225776672, -0.722041666507721], [-0.5838022828102112, -0.5000925660133362, 0.017224393784999847, 0.15488125383853912, -0.19123981893062592, -1.0283174514770508, -0.5515391826629639, 0.062003541737794876, -0.35814476013183594, -0.8047780990600586], [-0.29370713233947754, -0.6571087837219238, -0.031062738969922066, 0.059516679495573044, -0.1167188212275505, -0.406633198261261, -0.4307315945625305, 0.028445033356547356, -0.23886509239673615, -0.6157122850418091], [-0.2421630322933197, -0.5918901562690735, -0.09045437723398209, 0.00043303414713591337, -0.05422462522983551, -0.29183652997016907, -0.2708702087402344, 0.11010473966598511, -0.022651132196187973, -0.3448677659034729], [-0.29605382680892944, -0.46938490867614746, 0.02553536370396614, 0.016105232760310173, -0.06779339909553528, -0.23217462003231049, -0.2278599590063095, 0.18979725241661072, 0.054456647485494614, -0.3508704900741577], [-0.11786817014217377, -0.45818009972572327, 0.053760744631290436, -0.03798052296042442, -0.20258976519107819, -0.00012386648450046778, -0.1764146238565445, 0.14037972688674927, -0.04754343256354332, -0.14612582325935364], [-0.002946164458990097, -0.5061984062194824, -0.042021069675683975, -0.10991214960813522, -0.06900441646575928, 0.03844078630208969, -0.2228948473930359, 0.12004420161247253, 0.06924714893102646, -0.15145091712474823], [-0.0511295311152935, -0.3356594443321228, 0.1325739324092865, 0.027958957478404045, -0.21043048799037933, 0.0545344315469265, -0.16669334471225739, 0.10056887567043304, 0.032958775758743286, -0.19969075918197632], [-0.08721376210451126, -0.24594852328300476, 0.07151590287685394, -0.01852373220026493, -0.17904332280158997, 0.10439030081033707, -0.15800140798091888, 0.10335444658994675, -0.030876008793711662, -0.21295331418514252], [0.01659098081290722, -0.06524650752544403, -0.031090548262000084, 0.02250714972615242, -0.2750523090362549, -0.03186415135860443, -0.24612540006637573, 0.1616947501897812, 0.08348163962364197, -0.1984119862318039], [-0.055025629699230194, -0.044800687581300735, -0.08803658187389374, 0.008589081466197968, -0.33309006690979004, -0.033924467861652374, -0.19627645611763, 0.09477615356445312, 0.08349373936653137, 0.009834501892328262], [0.07920117676258087, 0.024719836190342903, 0.09478477388620377, 0.07417947798967361, -0.4296075999736786, -0.20486454665660858, -0.17421787977218628, 0.03547199070453644, -0.1916835457086563, 0.14862798154354095], [0.08846644312143326, -0.03487470746040344, 0.058702558279037476, 0.10035337507724762, -0.4762001633644104, -0.24400411546230316, -0.3644830882549286, 0.16652698814868927, -0.20108504593372345, 0.11721232533454895], [0.35030031204223633, -0.2204984873533249, -0.09789655357599258, 0.10090291500091553, -0.3860211968421936, -0.21950115263462067, -0.35599493980407715, 0.10914746671915054, 0.02377179265022278, 0.0394059494137764], [0.16561225056648254, -0.08312080800533295, -0.08285204321146011, 0.046302732080221176, -0.2357884794473648, -0.08311527967453003, -0.38332146406173706, 0.1639835387468338, -0.10207029432058334, -0.06852956861257553], [0.19547246396541595, -0.17061367630958557, -0.18433500826358795, 0.08391913026571274, -0.13742466270923615, -0.11906012147665024, -0.542826235294342, 0.10220614075660706, -0.016133496537804604, -0.09578675776720047], [0.028258418664336205, -0.10135507583618164, 0.05683956295251846, 0.09929399192333221, -0.11060929298400879, 0.04142354056239128, -0.5748850703239441, 0.01553341280668974, 0.09682241827249527, -0.13323943316936493], [0.05372237414121628, -0.27670565247535706, -0.08252397924661636, -0.046743035316467285, -0.03720514103770256, 0.14976461231708527, -0.31163057684898376, -0.004207370802760124, -0.034395214170217514, -0.17205895483493805], [-0.0835508406162262, -0.24712803959846497, -0.08060259371995926, -0.03552465885877609, -0.12244481593370438, 0.13072672486305237, -0.2733554244041443, -0.13796761631965637, 0.05522662401199341, -0.0075646983459591866], [0.09950196743011475, -0.37643250823020935, -0.1742805391550064, -0.0628189817070961, -0.20916543900966644, 0.10381457954645157, -0.39650970697402954, -0.14273375272750854, -0.023767784237861633, -0.3277801275253296], [0.1508823186159134, -0.6426762938499451, -0.26288506388664246, -0.5095373392105103, -0.1229759156703949, 0.2980257272720337, -0.548801064491272, -0.23663686215877533, 0.06566565483808517, -0.5233494639396667], [-0.17888596653938293, -0.8948389291763306, -1.4950169324874878, -1.6264731884002686, -0.2922535836696625, 0.5933493971824646, -0.8431610465049744, -0.640943169593811, 0.042993154376745224, -0.8283577561378479], [-1.470603585243225, -1.021573781967163, -1.6117340326309204, -1.8781721591949463, -0.4080369174480438, 0.5479560494422913, -1.062862753868103, -0.9272486567497253, -0.019886350259184837, -1.0619224309921265], [-0.8854411840438843, -0.6090936064720154, -0.8952815532684326, -0.7616021037101746, -0.5343729853630066, 0.23474332690238953, -0.5437784194946289, -0.9780383110046387, -0.03921058401465416, -0.9801893830299377], [-0.2590576708316803, -0.18013057112693787, -0.14383554458618164, -0.060063332319259644, -0.26201194524765015, -0.00911873858422041, -0.10418359935283661, -0.17452087998390198, -0.052555691450834274, -0.16505351662635803], [-0.08074076473712921, -0.08578938990831375, 0.0031564871314913034, -0.13188914954662323, -0.05927075073122978, -0.02823081612586975, 0.03743227198719978, 0.09617238491773605, 0.016293060034513474, -0.092595174908638], [-0.22173412144184113, -0.15253576636314392, -0.23117318749427795, -0.3148496150970459, -0.28630444407463074, -0.2632739543914795, -0.0956074520945549, 0.4397180378437042, -0.3001788258552551, -0.4076184630393982], [-0.29541125893592834, -0.18615901470184326, -0.31896016001701355, -0.5603078603744507, -0.46512001752853394, -0.5527510643005371, -0.21565933525562286, 0.6318916082382202, -0.7135918140411377, -0.8617051839828491], [-0.33149802684783936, -0.34551292657852173, -0.3659089207649231, 0.09219501912593842, -0.4127541780471802, -0.8451844453811646, -0.573859691619873, 0.33824464678764343, -0.44057604670524597, -0.9326143264770508], [-0.4135919511318207, -0.431719034910202, 0.07420004904270172, 0.19312754273414612, -0.34272536635398865, -0.776500940322876, -0.4738229513168335, 0.07344918698072433, -0.17328031361103058, -0.7391842007637024], [-0.2623377740383148, -0.5601963400840759, 0.15386903285980225, -0.04401009529829025, -0.278276264667511, -0.4949333369731903, -0.4992659389972687, 0.04254870489239693, -0.024058878421783447, -0.26583248376846313], [-0.29836419224739075, -0.5016797780990601, -0.0921386331319809, 0.01773175038397312, -0.32456329464912415, -0.2765445411205292, -0.3289732038974762, 0.0568561814725399, 0.009229312650859356, -0.10480455309152603], [-0.18694914877414703, -0.3597126007080078, -0.1285734921693802, 0.03956313803792, -0.24370405077934265, -0.1670747846364975, -0.14424771070480347, -0.03344321995973587, 0.0408879779279232, -0.10810023546218872], [-0.23586265742778778, -0.3241541385650635, -0.187758207321167, -0.11073701828718185, -0.14836116135120392, 0.09872392565011978, -0.13598181307315826, -0.03149201720952988, 0.01723545603454113, -0.13998305797576904], [-0.061567019671201706, -0.27445313334465027, 0.02090335823595524, -0.05238055810332298, -0.1649024486541748, -0.03412341699004173, -0.22749730944633484, -0.1083148866891861, 0.1318446397781372, -0.1689082384109497], [-0.11827923357486725, -0.18877999484539032, 0.07320434600114822, -0.2790323495864868, -0.14296500384807587, 0.059642620384693146, -0.2240578979253769, -0.10102685540914536, 0.026465032249689102, -0.002720457734540105], [-0.095591701567173, -0.1720317006111145, -0.008926608599722385, -0.37444671988487244, -0.2193116545677185, 0.2027045637369156, -0.1591140627861023, 0.05659604072570801, 0.06013422831892967, -0.11516062170267105], [0.010631132870912552, -0.10027221590280533, -0.007541557773947716, -0.3650234639644623, -0.15403588116168976, 0.052015744149684906, -0.31280651688575745, 0.08915382623672485, -0.0341905914247036, -0.03135507181286812], [0.07218620926141739, -0.06477251648902893, 0.011285233311355114, -0.13276530802249908, -0.2651737928390503, -0.09207698702812195, -0.2569766044616699, 0.06433924287557602, -0.025829056277871132, -0.07268477976322174], [0.011210735887289047, 0.2759155333042145, 0.08319389075040817, 0.2262398600578308, -0.6210250854492188, -0.1771351397037506, -0.22290019690990448, 0.22792449593544006, -0.16398553550243378, 0.07390062510967255], [-0.08914391696453094, 0.2982267141342163, 0.016338201239705086, 0.2224559336900711, -0.42286956310272217, -0.36556941270828247, -0.3776382803916931, 0.28588083386421204, -0.4200836420059204, 0.0046851616352796555], [0.1506395787000656, 0.1571136713027954, 0.09041944891214371, 0.12952783703804016, -0.23007985949516296, -0.3840603828430176, -0.5336224436759949, 0.19908639788627625, -0.23350945115089417, -0.06953608989715576], [0.13217496871948242, 0.011960145086050034, 0.025494059547781944, 0.05326320230960846, -0.16331149637699127, -0.27043628692626953, -0.7043938040733337, 0.29093021154403687, -0.09473051130771637, -0.14718109369277954], [0.2559569180011749, -0.17004163563251495, 0.014597797766327858, 0.0526689849793911, -0.11416888982057571, -0.22317272424697876, -0.6774104237556458, 0.13475638628005981, -0.08592014014720917, -0.01654214784502983], [0.12338584661483765, -0.35285261273384094, -0.07684061676263809, 0.07787493616342545, -0.10440926253795624, -0.2048429697751999, -0.4509674310684204, 0.08340267837047577, 0.050803039222955704, -0.12228545546531677], [0.09929106384515762, -0.3327889144420624, -0.00036363283288665116, 0.20157599449157715, -0.09310027211904526, -0.10095681995153427, -0.3601744771003723, 0.02847338281571865, 0.05564473196864128, -0.05984574928879738], [-0.08615812659263611, -0.40474483370780945, -0.24853336811065674, 0.0698079764842987, -0.13564817607402802, 0.11592574417591095, -0.3567630350589752, -0.030651310458779335, 0.08286896347999573, -0.300464928150177], [-0.09214805066585541, -0.7108084559440613, -0.22185280919075012, 0.08528614789247513, -0.14563779532909393, 0.01204007863998413, -0.3573043644428253, -0.07326055318117142, -0.015222783200442791, -0.30583351850509644], [0.05462617427110672, -0.9319681525230408, -0.3368993103504181, -0.45227017998695374, -0.33988165855407715, 0.34969910979270935, -0.5249177813529968, -0.3289363384246826, -0.05988467484712601, -0.523691713809967], [0.006305433344095945, -1.127837061882019, -1.5008888244628906, -1.8919627666473389, -0.5832970142364502, 0.8890637755393982, -0.8259249329566956, -0.6121814846992493, -0.15082497894763947, -0.8881814479827881], [-1.1676286458969116, -0.967598557472229, -1.4683959484100342, -1.5117696523666382, -0.5882871150970459, 0.9305397868156433, -1.1719201803207397, -0.9227913618087769, -0.2222699075937271, -1.0855624675750732], [-0.9554258584976196, -0.6267207860946655, -0.7277218103408813, -0.8378082513809204, -0.7587231397628784, 0.43077901005744934, -0.7420244812965393, -0.7926927804946899, 0.06631454080343246, -0.8768404722213745], [-0.18882247805595398, -0.1966731697320938, -0.20653356611728668, -0.06067240238189697, -0.3150189518928528, 0.14145733416080475, -0.1336544156074524, -0.14910352230072021, -0.013959333300590515, -0.22553668916225433], [-0.016005387529730797, -0.07584920525550842, -0.0562446191906929, 0.026310084387660027, -0.06964164972305298, -0.019813446328043938, 0.0418078750371933, 0.07971788197755814, -0.048824552446603775, -0.07476922869682312], [-0.23690269887447357, -0.03667367622256279, -0.15723668038845062, -0.5062018036842346, -0.3052346706390381, -0.34327030181884766, -0.16720440983772278, 0.5636500716209412, -0.32453906536102295, -0.48715102672576904], [-0.32389336824417114, -0.11623115092515945, -0.27006837725639343, -0.46367448568344116, -0.4217280149459839, -0.6562474966049194, -0.3325082063674927, 0.4462410807609558, -0.7435718178749084, -0.9404143691062927], [-0.4857763350009918, -0.33527377247810364, -0.1539660096168518, 0.25661730766296387, -0.5409313440322876, -0.7928568124771118, -0.6340920925140381, 0.2984406054019928, -0.5587159991264343, -0.7042748928070068], [-0.515372633934021, -0.45174527168273926, -0.21627473831176758, 0.12980546057224274, -0.42415302991867065, -0.4744521677494049, -0.6133953928947449, 0.11223731935024261, -0.033928435295820236, -0.4043036699295044], [-0.23924478888511658, -0.5394110679626465, 0.0037439640145748854, -0.23447181284427643, -0.37352344393730164, -0.282878041267395, -0.3229231834411621, 0.07463144510984421, -0.12311806529760361, -0.08912681043148041], [-0.24173951148986816, -0.5748376846313477, -0.06286217272281647, 0.019400952383875847, -0.2971738874912262, -0.20491038262844086, -0.23332436382770538, -0.010831555351614952, 0.0013980959774926305, 0.008096587844192982], [-0.1381644308567047, -0.317838579416275, -0.1620824635028839, -0.22808951139450073, -0.09148085117340088, 0.009965612553060055, -0.1447220742702484, -0.012486899271607399, 0.08267594128847122, 0.0029271815437823534], [-0.1289871484041214, -0.23058146238327026, -0.11687815934419632, -0.28981655836105347, -0.11846423894166946, 0.11316810548305511, -0.0476367250084877, -0.13432665169239044, 0.050449829548597336, -0.03367859870195389], [-0.10646875947713852, -0.3280506730079651, -0.14295777678489685, -0.5494641661643982, 0.017831815406680107, 0.24968327581882477, -0.15624774992465973, -0.055457763373851776, 0.21296031773090363, 0.05189891904592514], [-0.1107560396194458, -0.20845048129558563, -0.19952036440372467, -0.49705490469932556, 0.014670801348984241, 0.16960987448692322, -0.080579474568367, 0.029655320569872856, 0.17844262719154358, 0.12014637887477875], [-0.05351417139172554, -0.002295619808137417, -0.17914634943008423, -0.5455079674720764, -0.057802073657512665, 0.14784865081310272, -0.2759530544281006, -0.05944018438458443, 0.045305054634809494, 0.043562356382608414], [-0.10850518941879272, -0.16439828276634216, -0.19625353813171387, -0.42165902256965637, 0.15034697949886322, 0.28354308009147644, -0.1395484358072281, -0.13874532282352448, 0.14455397427082062, 0.06134163215756416], [0.013220726512372494, 0.1978447437286377, -0.39856311678886414, -0.08485713601112366, -0.27801454067230225, 0.17709694802761078, -0.16257598996162415, 0.1993505209684372, -0.06502712517976761, -0.1711435467004776], [-0.12777313590049744, 0.5396116375923157, -0.14834332466125488, 0.11545506119728088, -0.798814594745636, -0.08003243058919907, -0.235587015748024, 0.23087230324745178, -0.0945078581571579, -0.06716819107532501], [-0.2997708022594452, 0.6547271013259888, -0.1637793928384781, 0.07627788931131363, -0.2620222866535187, -0.2535034716129303, -0.5028947591781616, 0.4253911077976227, -0.4038815498352051, -0.1655610352754593], [-0.15552471578121185, 0.23407529294490814, -0.053673021495342255, 0.11201739311218262, -0.056445952504873276, -0.4208539128303528, -0.5343345999717712, 0.4163109064102173, -0.3706216812133789, -0.15659941732883453], [0.1305493712425232, -0.05195215716958046, -0.06357844918966293, 0.06782125681638718, -0.026874052360653877, -0.36324143409729004, -0.5454521179199219, 0.22477658092975616, -0.23946461081504822, -0.06121060252189636], [0.16452908515930176, -0.21345999836921692, -0.012299317866563797, 0.16018566489219666, -0.04279046878218651, -0.3489823341369629, -0.43302640318870544, 0.23990288376808167, -0.02398800291121006, -0.002294987440109253], [0.07024659216403961, -0.2444610744714737, -0.052241355180740356, 0.14542286098003387, -0.012380525469779968, -0.296555757522583, -0.3949071168899536, 0.1863141804933548, 0.09716946631669998, -0.08207661658525467], [0.10785076022148132, -0.45104295015335083, -0.14201946556568146, 0.12929025292396545, -0.20143836736679077, -0.29010939598083496, -0.2527686655521393, 0.21740387380123138, 0.034000568091869354, -0.04701431095600128], [-0.015684837475419044, -0.6387772560119629, -0.16674093902111053, -0.013688693754374981, -0.16519609093666077, -0.17709141969680786, -0.32875022292137146, 0.10953196883201599, -0.05429514870047569, -0.15446850657463074], [0.031735584139823914, -0.8257617950439453, -0.2915981709957123, -0.06286799162626266, -0.23524363338947296, -0.1257912516593933, -0.4145375192165375, 0.03633280098438263, -0.01477832905948162, -0.10061260312795639], [0.2037161886692047, -1.0523661375045776, -0.30265364050865173, -0.4998021423816681, -0.5648700594902039, 0.2598309814929962, -0.4072436988353729, -0.4498712718486786, -0.03749961033463478, -0.4194629192352295], [0.022516664117574692, -1.317996621131897, -0.9318110346794128, -1.6276051998138428, -0.7553732395172119, 0.9386813640594482, -0.5281971096992493, -0.9631686806678772, -0.28467801213264465, -0.9402958154678345], [-0.9300081729888916, -0.7525340914726257, -0.9387416243553162, -1.0966891050338745, -0.7190744876861572, 1.038900375366211, -1.0449340343475342, -0.7617032527923584, -0.4917116165161133, -1.1113978624343872], [-0.7638934850692749, -0.35192087292671204, -0.661115288734436, -0.7163541913032532, -0.595816969871521, 0.6497282981872559, -0.7462603449821472, -0.621490478515625, -0.15201570093631744, -0.7495060563087463], [-0.1382097452878952, -0.05852935463190079, -0.1516280472278595, -0.06511638313531876, -0.12339942157268524, -0.04511937126517296, -0.19344264268875122, -0.01754152588546276, 0.02861545979976654, -0.18487754464149475], [0.00981963612139225, -0.015580461360514164, -0.08043727278709412, -0.03921405225992203, -0.06418327987194061, -0.024909093976020813, -0.049333661794662476, 0.051427993923425674, -0.07294999063014984, -0.11293049156665802], [-0.11067028343677521, -0.10109785944223404, -0.14769428968429565, -0.26886188983917236, -0.19208312034606934, -0.2463516891002655, -0.03839582949876785, 0.41670751571655273, -0.2618885636329651, -0.4051899313926697], [-0.4316387474536896, -0.020199285820126534, -0.45227059721946716, -0.4050569534301758, -0.4786713719367981, -0.6187247037887573, -0.3606666922569275, 0.4604661464691162, -0.6958490014076233, -0.5145348906517029], [-0.6373236775398254, -0.1612107753753662, -0.3751307427883148, 0.09087658673524857, -0.47735828161239624, -0.6551725268363953, -0.5063715577125549, 0.42419981956481934, -0.5272956490516663, -0.5562047958374023], [-0.396715372800827, -0.2727070152759552, -0.3229576349258423, -0.14180432260036469, -0.37019145488739014, -0.2598366141319275, -0.5445088744163513, 0.2521417737007141, -0.2561948001384735, -0.31260916590690613], [-0.2428590953350067, -0.44456547498703003, -0.25719523429870605, -0.33021435141563416, -0.30512744188308716, -0.20236840844154358, -0.25665441155433655, -0.03540883958339691, -0.04283726587891579, 0.10998158156871796], [-0.10712254047393799, -0.606967568397522, -0.3166407644748688, -0.3384527862071991, -0.23242472112178802, 0.032656069844961166, -0.2108391672372818, -0.1896069347858429, 0.08269118517637253, 0.03197988495230675], [-0.1710953712463379, -0.4107153117656708, -0.4905203878879547, -0.5231919884681702, -0.04730452597141266, 0.05630107969045639, 0.08051322400569916, 0.03269946202635765, 0.21227093040943146, 0.08700689673423767], [-0.11202039569616318, -0.4289436340332031, -0.5717302560806274, -0.5689858198165894, 0.11258304119110107, 0.11028088629245758, -0.0815885066986084, -0.057587556540966034, 0.2146909087896347, 0.2535383701324463], [-0.21331098675727844, -0.2959223687648773, -0.6010470986366272, -0.5249179005622864, 0.1442619413137436, -0.0051871840842068195, 0.016061648726463318, -0.057097338140010834, 0.09702026844024658, 0.05297693982720375], [-0.21405664086341858, -0.3366343379020691, -0.699476420879364, -0.3687327206134796, 0.24339362978935242, 0.08326255530118942, -0.035059887915849686, 0.05877384543418884, 0.11266908049583435, 0.15024486184120178], [-0.15693822503089905, -0.2893449068069458, -0.7209980487823486, -0.38999423384666443, 0.1144329234957695, 0.051619842648506165, -0.12830406427383423, -0.08107761293649673, 0.00600792933255434, 0.08819583803415298], [-0.14972159266471863, -0.18289516866207123, -0.7337241768836975, -0.23686057329177856, 0.23850654065608978, 0.20258812606334686, 0.024860573932528496, -0.0871591791510582, 0.06269137561321259, -0.07197603583335876], [-0.15004217624664307, 0.17028634250164032, -0.7531983256340027, -0.028135480359196663, -0.5221328735351562, 0.25082409381866455, -0.025828678160905838, -0.10394962877035141, 0.15772177278995514, -0.16922497749328613], [-0.4026200473308563, 0.5541712045669556, -0.6521090269088745, 0.10025561600923538, -0.7399409413337708, 0.04647742584347725, -0.2942127585411072, 0.16312167048454285, 0.17705945670604706, -0.07463965564966202], [-0.6493678092956543, 0.5336523652076721, -0.49863332509994507, 0.027811795473098755, -0.1086370050907135, -0.2596915662288666, -0.604045033454895, 0.3394038677215576, -0.17129741609096527, 0.03290765359997749], [-0.5908675789833069, 0.18095870316028595, -0.22922272980213165, -0.035870157182216644, 0.20258401334285736, -0.2741072177886963, -0.3464762270450592, 0.3767246603965759, -0.21746701002120972, 0.13087452948093414], [-0.15734875202178955, -0.1469765603542328, -0.22615255415439606, 0.10179032385349274, 0.12358519434928894, -0.30277031660079956, -0.3278379738330841, 0.306450754404068, -0.20049218833446503, 0.21728351712226868], [-0.0869445875287056, -0.1595301777124405, -0.1311645358800888, 0.0811949372291565, -0.13313329219818115, -0.3175249397754669, -0.2505550682544708, 0.32373130321502686, -0.11790609359741211, 0.18824416399002075], [0.038847409188747406, -0.2669500708580017, 0.06777793914079666, 0.10936767607927322, -0.0758148804306984, -0.3846033811569214, -0.2642122209072113, 0.12227893620729446, -0.01791653223335743, 0.14662297070026398], [-0.04987506940960884, -0.3925410509109497, -0.15591128170490265, 0.06717342138290405, -0.22202982008457184, -0.6512119174003601, -0.22428661584854126, 0.004818325862288475, -0.042875245213508606, 0.1894395500421524], [0.05082893744111061, -0.63322913646698, -0.17094182968139648, -0.2640479505062103, -0.1945456862449646, -0.7138767242431641, 0.028499718755483627, 0.031202252954244614, 0.026051543653011322, 0.147242471575737], [0.12508636713027954, -0.7160632014274597, -0.22785067558288574, -0.3166217803955078, -0.3218579590320587, -0.6697300672531128, -0.09200165420770645, 0.028324104845523834, 0.12326633185148239, 0.039936363697052], [0.03804917633533478, -0.7829378247261047, -0.334890216588974, -0.584686815738678, -0.6532758474349976, -0.19077236950397491, 0.16018882393836975, -0.40694722533226013, 0.009532773867249489, -0.26522132754325867], [0.10570093244314194, -0.8821337223052979, -0.43097883462905884, -1.2312726974487305, -0.9963901042938232, 0.20238237082958221, -0.21958428621292114, -0.958943784236908, -0.05180356651544571, -0.8204067349433899], [-0.5371400713920593, -0.5134136080741882, -0.1949678212404251, -0.8065555095672607, -0.7026300430297852, 0.7962487936019897, -0.6924883127212524, -0.9103791117668152, -0.375868022441864, -0.9803197979927063], [-0.47714948654174805, -0.2192864567041397, -0.4854033589363098, -0.38069072365760803, -0.41685783863067627, 0.39797428250312805, -0.5250657200813293, -0.40426450967788696, 0.008910208940505981, -0.6008468270301819], [-0.14031602442264557, 0.060780540108680725, -0.16135960817337036, -0.08307262510061264, -0.02313764952123165, -0.1445615291595459, -0.1109926775097847, -0.01671801693737507, 0.041232697665691376, -0.2289387732744217], [0.028583286330103874, 0.06677393615245819, 0.030366472899913788, -0.08845049142837524, -0.018352113664150238, 0.06095843017101288, 0.03363318741321564, 0.006852937862277031, -0.07538847625255585, -0.14222382009029388], [-0.08191491663455963, -0.12114306539297104, -0.21160002052783966, -0.1645606905221939, -0.19134262204170227, -0.32414838671684265, -0.04512876644730568, 0.4077409505844116, -0.29524338245391846, -0.4100722670555115], [-0.3548283874988556, -0.14148598909378052, -0.378016859292984, -0.4188173711299896, -0.35093140602111816, -0.6452958583831787, -0.3907221853733063, 0.598979651927948, -0.5841701030731201, -0.6761630773544312], [-0.6642503142356873, -0.08614324033260345, -0.4702300429344177, -0.12471111863851547, -0.3219233751296997, -0.29450932145118713, -0.5206063389778137, 0.3315199613571167, -0.530394971370697, -0.45239657163619995], [-0.4609634578227997, -0.1604069322347641, -0.5490831136703491, -0.334246426820755, -0.43629494309425354, -0.30738550424575806, -0.6019938588142395, 0.25063133239746094, -0.2850273549556732, 0.07028547674417496], [-0.12176325172185898, -0.4098576307296753, -0.6779860258102417, -0.4845680296421051, -0.2442295402288437, -0.041167035698890686, -0.1477901041507721, -0.019777465611696243, 0.08955874294042587, 0.11624118685722351], [0.018017536029219627, -0.493398517370224, -0.8541454076766968, -0.5522209405899048, -0.019055886194109917, 0.22152762115001678, 0.08901587128639221, -0.07088017463684082, 0.06352336704730988, 0.1629651039838791], [-0.031479962170124054, -0.48612186312675476, -0.9786674380302429, -0.4448104202747345, 0.20606748759746552, 0.07207446545362473, 0.11944037675857544, 0.1341647356748581, 0.07808469980955124, 0.14815928041934967], [-0.1911243349313736, -0.35643959045410156, -0.6367086172103882, -0.41022294759750366, 0.1624232828617096, -0.11465935409069061, 0.09270472079515457, 0.10434854030609131, -0.12783323228359222, 0.058168746531009674], [-0.13341359794139862, -0.178843691945076, -0.6050013899803162, -0.2770499587059021, 0.13445676863193512, -0.11320341378450394, 0.04643155634403229, -0.09091266989707947, -0.0008102244464680552, 0.12102014571428299], [-0.09516342729330063, -0.4231046736240387, -0.6078321933746338, -0.09463352710008621, 0.304044634103775, 0.04083870351314545, -0.08444307744503021, -0.13638757169246674, -0.1196867972612381, 0.13043184578418732], [-0.05805880203843117, -0.4638921916484833, -0.5915125608444214, -0.19910405576229095, 0.36703401803970337, 0.22362278401851654, 0.14364008605480194, -0.22412578761577606, -0.15396013855934143, 0.004749314393848181], [-0.06399624049663544, -0.28662344813346863, -0.6785794496536255, 0.0073938448913395405, 0.4755330979824066, 0.1815352737903595, 0.030257103964686394, -0.598387598991394, 0.04149813577532768, -0.2593410611152649], [-0.2358877807855606, 0.22809980809688568, -0.547822892665863, 0.003796276170760393, -0.24367336928844452, 0.1517132818698883, 0.0012025096220895648, -0.6895700097084045, 0.27125588059425354, -0.1134723573923111], [-0.7421523332595825, 0.617259681224823, -0.5365442037582397, 0.2106224149465561, -0.48503151535987854, -0.0457335039973259, -0.3054615557193756, -0.33290940523147583, 0.12483543902635574, 0.10251467674970627], [-0.8954353928565979, 0.4545617699623108, -0.4347892999649048, 0.0034733356442302465, 0.08402112126350403, -0.16952082514762878, -0.42842286825180054, 0.18045397102832794, -0.060310982167720795, 0.19312147796154022], [-0.6701321005821228, 0.15150271356105804, -0.4193914532661438, 0.032301485538482666, 0.28957509994506836, -0.4323691129684448, -0.17643533647060394, 0.30746695399284363, -0.002902660286054015, 0.19767960906028748], [-0.32368335127830505, -0.007625177502632141, -0.39207544922828674, 0.0302411038428545, 0.07916700094938278, -0.31618940830230713, -0.23032540082931519, 0.3193696141242981, -0.0916169285774231, 0.326265811920166], [-0.11012586951255798, -0.03180082514882088, -0.2107127457857132, 0.034453798085451126, -0.02132231742143631, -0.31081175804138184, -0.23826295137405396, 0.14402517676353455, -0.06853322684764862, 0.2437455952167511], [-0.11095912009477615, -0.31585437059402466, -0.028596747666597366, -0.14744609594345093, 0.008763973601162434, -0.43987300992012024, -0.31719717383384705, -0.1119210496544838, 0.013457748107612133, 0.32614707946777344], [-0.02133837155997753, -0.4978524446487427, -0.18416431546211243, -0.2360658049583435, -0.08115426450967789, -0.540776252746582, -0.17376911640167236, -0.028261538594961166, 0.08773653954267502, 0.34947967529296875], [0.052098535001277924, -0.5078001618385315, -0.16361549496650696, -0.6048240065574646, 0.06459757685661316, -0.8438928723335266, -0.05185435712337494, -0.03676479682326317, 0.19223198294639587, 0.2250390201807022], [0.03536837175488472, -0.4790819585323334, -0.32110661268234253, -0.6709662675857544, -0.0707063227891922, -1.2174131870269775, 0.18679165840148926, -0.20876196026802063, 0.19445429742336273, 0.13842447102069855], [0.17603440582752228, -0.6286413669586182, -0.5745179653167725, -0.9602320790290833, -0.540144681930542, -1.0936461687088013, 0.41918179392814636, -0.4916263222694397, 0.31011343002319336, -0.0756319910287857], [0.3060048222541809, -0.8129732012748718, -0.12871861457824707, -1.1940418481826782, -0.5770143866539001, -0.9254910945892334, 0.11969991773366928, -0.7124396562576294, 0.2074945867061615, -1.0456517934799194], [-0.13870660960674286, -0.40500253438949585, 0.17556232213974, -0.45435208082199097, -0.37170329689979553, -0.12943409383296967, -0.5275610685348511, -0.5413120985031128, 0.016491953283548355, -0.9992662072181702], [-0.27722790837287903, -0.22665810585021973, 0.09470470249652863, -0.33113032579421997, -0.2642391324043274, 0.04518083855509758, -0.5819968581199646, -0.3239251673221588, -0.035099808126688004, -0.6046136617660522], [-0.1590966433286667, -0.0806078091263771, 0.01827680505812168, -0.14823250472545624, -0.07976829260587692, -0.16297316551208496, -0.1370091289281845, -0.045789338648319244, -0.10850498825311661, -0.12379103153944016], [0.005632754415273666, 0.002655893098562956, -0.07877457141876221, -0.06820288300514221, -0.06188485398888588, -0.07452850788831711, 0.013673887588083744, -0.05372490733861923, 0.05196583271026611, 0.03290445730090141], [0.01717241108417511, -0.09497227519750595, 0.004245430696755648, -0.2459462732076645, -0.08433285355567932, -0.17921018600463867, -0.030656443908810616, 0.24642932415008545, -0.22619877755641937, -0.2989006042480469], [-0.23835372924804688, -0.0846407487988472, -0.2601812183856964, -0.36904969811439514, -0.2557601034641266, -0.48269638419151306, -0.29693037271499634, 0.49171996116638184, -0.4625224471092224, -0.5439645051956177], [-0.4586199223995209, -0.08620985597372055, -0.4965248703956604, -0.2570488154888153, -0.2517416179180145, -0.3569202721118927, -0.5097734928131104, 0.23419469594955444, -0.42619645595550537, -0.28736716508865356], [-0.2888249158859253, -0.1552625149488449, -0.714361846446991, -0.45184558629989624, -0.2671956717967987, -0.14258606731891632, -0.6530147790908813, 0.11675189435482025, -0.293123334646225, 0.18376153707504272], [-0.07652853429317474, -0.43796372413635254, -0.8801016807556152, -0.5780048370361328, -0.04569833725690842, -0.12132179737091064, 0.010888246819376945, 2.9560716939158738e-05, -0.18848079442977905, 0.04142777994275093], [0.08362880349159241, -0.5453525185585022, -0.913026750087738, -0.40068596601486206, 0.19031032919883728, -0.15926814079284668, 0.133284792304039, 0.025814417749643326, -0.1974201798439026, 0.13974346220493317], [0.12727871537208557, -0.2753336429595947, -0.7976711392402649, -0.5175964832305908, 0.17220856249332428, -0.058553796261548996, -0.06029266119003296, -0.06792937219142914, -0.24430079758167267, 0.02887686714529991], [0.026216696947813034, -0.14973418414592743, -0.5660293698310852, -0.2765166759490967, 0.19298884272575378, -0.10938021540641785, -0.026211567223072052, -0.08806250244379044, -0.15057918429374695, 0.11833345144987106], [-0.03391168639063835, -0.3704248368740082, -0.4302268624305725, -0.16801096498966217, 0.20138327777385712, -0.008025981485843658, 0.09882912784814835, -0.1547672003507614, -0.0724072977900505, 0.048357341438531876], [0.03667493909597397, -0.7500728368759155, -0.2738496661186218, -0.2543370723724365, 0.38356882333755493, 0.10650324821472168, 0.08561383932828903, -0.22111926972866058, -0.2680816650390625, 0.006521397735923529], [0.006228652782738209, -0.6058441996574402, -0.14130745828151703, -0.28194719552993774, 0.5030320286750793, 0.12041648477315903, 0.10979039967060089, -0.5308713316917419, -0.10094361752271652, -0.17454968392848969], [-0.09994518756866455, -0.2326572835445404, -0.21094748377799988, -0.04970456659793854, 0.3145635724067688, 0.2999213933944702, 0.06719356775283813, -1.0447152853012085, 0.11315085738897324, -0.24041013419628143], [-0.4087602496147156, 0.19156427681446075, -0.11329817771911621, 0.09473913162946701, -0.1598062515258789, 0.16006246209144592, -0.12866133451461792, -0.999992847442627, 0.17542730271816254, 0.025741703808307648], [-0.7733557224273682, 0.5909374356269836, -0.21424567699432373, 0.099169060587883, -0.20809659361839294, -0.132499560713768, -0.2560581564903259, -0.3523540198802948, 0.0706721767783165, 0.1015135645866394], [-0.9016566276550293, 0.3200940787792206, -0.28862908482551575, -0.08668135106563568, 0.18668781220912933, -0.40076419711112976, -0.08991269767284393, 0.009381195530295372, 0.12119156122207642, 0.22624218463897705], [-0.7746846079826355, 0.06659872084856033, -0.2495693564414978, -0.039088428020477295, 0.1944815218448639, -0.46149206161499023, 0.001324918819591403, 0.14085543155670166, -0.014692953787744045, 0.3362768292427063], [-0.271121084690094, 0.08955898135900497, -0.2567856013774872, -0.05084138363599777, 0.2822379469871521, -0.40312767028808594, -0.1844358891248703, 0.06050863116979599, -0.17369356751441956, 0.2814733684062958], [-0.17379166185855865, -0.24637602269649506, -0.21366935968399048, 0.06821910291910172, 0.14572013914585114, -0.2847500741481781, -0.24742409586906433, 0.04685316979885101, -0.09681189805269241, 0.20889608561992645], [-0.1418536752462387, -0.497214138507843, -0.1968824714422226, -0.1930808573961258, 0.13688024878501892, -0.20875005424022675, -0.08996257930994034, -0.11753766983747482, -0.03807532414793968, 0.22360792756080627], [-0.2772330939769745, -0.624967634677887, -0.2433682084083557, -0.4698381721973419, 0.19720236957073212, -0.1713935136795044, -0.14927829802036285, 0.08326927572488785, 0.004085613880306482, 0.1648900955915451], [-0.12546473741531372, -0.6512258648872375, -0.20902632176876068, -0.5823189616203308, 0.11332390457391739, -0.3674069046974182, 0.047093480825424194, -0.05647245794534683, -0.15211588144302368, 0.1518658697605133], [0.02822994627058506, -0.5326496958732605, -0.3812747299671173, -0.726424515247345, 0.03316238150000572, -0.619561493396759, 0.2181830108165741, -0.11268013715744019, -0.06532979011535645, 0.005486522801220417], [0.23854100704193115, -0.6715976595878601, -0.2515714764595032, -0.6896684765815735, -0.34643635153770447, -0.9601784944534302, 0.35232576727867126, -0.3327230215072632, -0.09249656647443771, -0.5078449249267578], [0.2795056998729706, -0.6365980505943298, 0.05692814290523529, -0.907958447933197, -0.4737686812877655, -1.0613192319869995, 0.19065020978450775, -0.46131497621536255, -0.13187438249588013, -1.068297028541565], [-0.16426759958267212, -0.5013845562934875, 0.41178837418556213, -0.8024399876594543, -0.3498871624469757, -0.47756049036979675, -0.4200611114501953, -0.39140772819519043, -0.2561332583427429, -0.9332883954048157], [-0.4185498058795929, -0.15063142776489258, 0.3356083035469055, -0.48110249638557434, -0.38156306743621826, -0.19980736076831818, -0.5306671857833862, -0.37479230761528015, -0.22959966957569122, -0.4333264231681824], [-0.11007983982563019, -0.07168709486722946, 0.12368032336235046, -0.1476283222436905, 0.007831077091395855, -0.06869784742593765, -0.028604326769709587, -0.0802445262670517, -0.055254872888326645, -0.16502541303634644], [-0.05298015475273132, 0.07844024151563644, 0.03957585245370865, -0.062200963497161865, 0.024715431034564972, -0.008196724578738213, -0.024937866255640984, 0.0037843105383217335, -0.05772313475608826, -0.0684116929769516], [-0.10920342057943344, -0.060969218611717224, -0.05316736176609993, 0.04618263617157936, 0.04351050779223442, -0.166824072599411, -0.006641673389822245, 0.01653096079826355, -0.16687868535518646, -0.15015409886837006], [-0.2871215045452118, 0.06679965555667877, -0.19285182654857635, -0.21075084805488586, -0.2926938831806183, -0.36038675904273987, -0.047931939363479614, 0.38119661808013916, -0.3372461199760437, -0.38632020354270935], [-0.5649692416191101, -0.05023042857646942, -0.26070302724838257, -0.41020315885543823, -0.10796705633401871, -0.4488336741924286, -0.5115678906440735, 0.22115986049175262, -0.6498948931694031, -0.28751760721206665], [-0.2716212272644043, -0.1226368173956871, -0.5073543787002563, -0.283038467168808, 0.096068374812603, -0.31696343421936035, -0.8399677276611328, -0.013170589692890644, -0.8013990521430969, 0.08985420316457748], [-0.02462851069867611, -0.49040964245796204, -0.7934428453445435, -0.4704633951187134, 0.16125702857971191, -0.21469292044639587, 0.005237432662397623, -0.029324481263756752, -0.42500171065330505, -0.01360303070396185], [0.07319644838571548, -0.6218865513801575, -0.48673608899116516, -0.49118953943252563, 0.12909217178821564, -0.14861375093460083, 0.07628023624420166, -0.042241647839546204, -0.3381144106388092, 0.05233192443847656], [0.12477586418390274, -0.5448001027107239, -0.26530224084854126, -0.4624960720539093, 0.17796388268470764, -0.12827472388744354, -0.012184989638626575, -0.17489510774612427, -0.4022788107395172, 0.037658873945474625], [0.09756799787282944, -0.3144908547401428, -0.16320303082466125, -0.22432160377502441, 0.2255857288837433, -0.04931692034006119, -0.016330229118466377, -0.22024618089199066, -0.3930574059486389, -0.0330200232565403], [0.03706438094377518, -0.37288913130760193, -0.21071772277355194, -0.19345179200172424, 0.19699618220329285, 0.07859749346971512, 0.06349587440490723, -0.29275965690612793, -0.3764452040195465, -0.1555468589067459], [-0.018328765407204628, -0.8363361358642578, -0.11436517536640167, -0.2911280393600464, 0.12341222167015076, 0.14401432871818542, 0.08983563631772995, -0.24741272628307343, -0.2131374627351761, -0.10195962339639664], [0.02380801923573017, -0.5311406254768372, -0.06158015877008438, -0.16933204233646393, 0.3174746632575989, 0.07045210152864456, 0.24683895707130432, -0.5737088322639465, 0.12382377684116364, -0.1484350562095642], [0.01976116932928562, -0.13152346014976501, -0.05833157151937485, 0.024355756118893623, 0.14620305597782135, 0.076328806579113, 0.02785344235599041, -0.9164186120033264, 0.18783819675445557, -0.13424167037010193], [-0.39482834935188293, 0.3208847641944885, 0.1442033052444458, 0.03262517228722572, -0.1730831116437912, -0.0882931500673294, -0.12407919019460678, -0.7126513123512268, 0.24884982407093048, -0.035881709307432175], [-0.8937597870826721, 0.43626827001571655, -0.06720492988824844, 0.0017271384131163359, -0.10291367024183273, -0.18028098344802856, -0.1508549004793167, -0.3179277777671814, 0.05189290642738342, -0.07155047357082367], [-0.9251932501792908, 0.3521822988986969, -0.21172523498535156, -0.031408123672008514, 0.053775981068611145, -0.22285547852516174, -0.07859163731336594, -0.1035282090306282, 0.0813617929816246, 0.146760955452919], [-0.7723071575164795, 0.025801079347729683, -0.20032207667827606, -0.11587374657392502, 0.2696540057659149, -0.33931484818458557, 0.007495608180761337, 0.008129914291203022, -0.036080501973629, 0.25878334045410156], [-0.16369308531284332, -0.13678470253944397, -0.3122851252555847, -0.07342403382062912, 0.3288702070713043, -0.3198253810405731, -0.3285524845123291, 0.1029752641916275, -0.06994713842868805, 0.18825040757656097], [-0.24106228351593018, -0.608945369720459, -0.1286436766386032, -0.09590159356594086, 0.1659151166677475, -0.23652520775794983, -0.2667575180530548, 0.2221832424402237, -0.19065047800540924, 0.0522911474108696], [-0.13249889016151428, -0.9975818991661072, -0.1883053481578827, -0.13398884236812592, 0.25823673605918884, -0.2420336753129959, -0.1713937371969223, 0.33152589201927185, -0.17178459465503693, 0.06070087477564812], [-0.04441166669130325, -0.8895983099937439, -0.10708262771368027, -0.2163964956998825, 0.0645299106836319, -0.10638990998268127, 0.011777345091104507, 0.1342809647321701, -0.2809728980064392, 0.0759662389755249], [-0.006811699829995632, -0.6148071885108948, -0.2527841627597809, -0.2309604436159134, 0.0140270059928298, -0.3074761629104614, -0.06872162967920303, 0.06603311747312546, -0.37337204813957214, 0.03108324110507965], [-0.035101670771837234, -0.6304345726966858, -0.3084574341773987, -0.34289029240608215, -0.10684459656476974, -0.27446249127388, 0.14566853642463684, 0.014794087037444115, -0.5299189686775208, -0.1850910633802414], [0.1271291971206665, -0.7711746692657471, -0.1980760097503662, -0.3626633882522583, -0.24065938591957092, -0.3380906283855438, 0.2448820322751999, -0.015909885987639427, -0.5148189067840576, -0.7425850033760071], [0.20158874988555908, -0.5940870046615601, 0.052515577524900436, -0.7893874645233154, -0.45549434423446655, -0.462497740983963, 0.06423847377300262, -0.3561997413635254, -0.603040874004364, -1.2893238067626953], [-0.1637948900461197, -0.41902366280555725, 0.25303637981414795, -0.9703893661499023, -0.3338455855846405, -0.57393878698349, -0.25768935680389404, -0.33141082525253296, -0.37409570813179016, -1.0520864725112915], [-0.5020279288291931, -0.30465495586395264, 0.49157705903053284, -0.39809057116508484, -0.32587191462516785, -0.5164366960525513, -0.596239447593689, -0.3841676712036133, -0.40239399671554565, -0.46003803610801697], [-0.0728251188993454, -0.011569547466933727, 0.10573522746562958, -0.09953822195529938, -0.030342750251293182, -0.012215965427458286, -0.11340942233800888, -0.07010886073112488, -0.20067934691905975, -0.11744937300682068], [-0.07637396454811096, -0.010712191462516785, -0.036292191594839096, 0.012011700309813023, -0.13392317295074463, -0.002291299868375063, -0.11817818135023117, 0.06661967188119888, -0.09560871869325638, -0.10140562057495117], [-0.039769742637872696, -0.01922466605901718, -0.07566476613283157, 0.04198256880044937, -0.0012445992324501276, 0.038683246821165085, 0.05281956493854523, -0.09252744168043137, -0.07487315684556961, 0.020343812182545662], [-0.2753312289714813, -0.021481728181242943, -0.31425613164901733, 0.11654603481292725, 0.014763625338673592, -0.4063783288002014, -0.186767116189003, -0.07797756046056747, -0.2829563617706299, -0.39810681343078613], [-0.6876264214515686, 0.05664386227726936, -0.05990567430853844, 0.010835102759301662, -0.0270752664655447, -0.2881784737110138, -0.6890186667442322, 0.08089249581098557, -0.7439471483230591, -0.2550757825374603], [-0.005250729154795408, -0.14452522993087769, -0.09032753854990005, -0.22410936653614044, 0.06974723190069199, -0.5177028179168701, -0.8293242454528809, -0.08418066799640656, -1.246495246887207, -0.11121568083763123], [0.10122767835855484, -0.5909110903739929, -0.05438239872455597, -0.37185782194137573, -0.0157820712774992, -0.4685485363006592, -0.25625646114349365, -0.2008838802576065, -0.6926667094230652, -0.14533694088459015], [-0.07473460584878922, -0.7490893602371216, -0.05896997079253197, -0.4564383327960968, 0.07274756580591202, -0.323017418384552, 0.06313913315534592, -0.09548430144786835, -0.5190613269805908, -0.08043468743562698], [0.1974889636039734, -0.4866797626018524, -0.07148637622594833, -0.42244139313697815, 0.20723958313465118, -0.3134062588214874, 0.038656849414110184, -0.23826727271080017, -0.39968034625053406, -0.07426877319812775], [0.10691950470209122, -0.3215765655040741, -0.12045373022556305, -0.39626994729042053, 0.20209901034832, -0.22739015519618988, 0.15067312121391296, -0.31279873847961426, -0.2780265510082245, -0.03952782601118088], [0.08168323338031769, -0.5012043714523315, -0.1305946558713913, -0.3955463171005249, 0.18262608349323273, -0.04323631152510643, 0.022484902292490005, -0.3772464692592621, -0.2383607178926468, -0.16316214203834534], [0.16295796632766724, -0.48626598715782166, -0.08105462789535522, -0.2195475548505783, 0.10074319690465927, 0.04424979165196419, 0.21962080895900726, -0.4409484267234802, -0.15584278106689453, -0.04886685311794281], [0.056070052087306976, -0.307081013917923, -0.09216099232435226, -0.1678161323070526, 0.12681764364242554, 0.017508624121546745, 0.22532609105110168, -0.712320864200592, -0.09950939565896988, -0.15218228101730347], [-0.13702328503131866, 0.06888628751039505, 0.008063385263085365, 0.034300267696380615, -0.001457381178624928, 0.05644578859210014, 0.07861847430467606, -0.7491690516471863, 0.13090118765830994, -0.1384456902742386], [-0.6257253289222717, 0.3367013931274414, 0.03318142890930176, 0.03262864053249359, -0.1765843629837036, -0.10695724934339523, -0.08208988606929779, -0.439563512802124, 0.21719515323638916, -0.21921837329864502], [-1.076177954673767, 0.5157939791679382, 0.04456846043467522, 0.01294929813593626, -0.013079904019832611, -0.346557080745697, 0.0033713688608258963, -0.32923638820648193, 0.1192227229475975, -0.22542068362236023], [-0.8238675594329834, 0.21996206045150757, -0.005610988941043615, 0.023137034848332405, 0.18873919546604156, -0.3200221657752991, 0.04357338324189186, -0.0503462553024292, 0.05312136560678482, 0.01000247336924076], [-0.5622463226318359, 0.010134009644389153, -0.04253365099430084, -0.1815643310546875, 0.44423723220825195, -0.3461088240146637, -0.0621938519179821, -0.12089527398347855, -0.19751214981079102, 0.2287718951702118], [-0.22350788116455078, -0.48359042406082153, -0.1972261369228363, -0.12011807411909103, 0.23877374827861786, -0.27170130610466003, -0.24441950023174286, 0.3508634567260742, -0.21792244911193848, 0.1508263349533081], [-0.14418010413646698, -0.7813138365745544, -0.19667772948741913, -0.15298697352409363, 0.01698148250579834, -0.09218238294124603, -0.1260005086660385, 0.402310848236084, -0.22929807007312775, 0.03480954095721245], [-0.14607863128185272, -1.147865653038025, -0.17849062383174896, -0.08911966532468796, 0.10678363591432571, -0.1593860536813736, -0.06974714249372482, 0.21483127772808075, -0.22680512070655823, -0.0094041358679533], [-0.02846675179898739, -0.9495479464530945, -0.19022008776664734, 0.03222598508000374, -0.0720396563410759, -0.2409721314907074, -0.03599528223276138, 0.2878780961036682, -0.41136133670806885, -0.01951604336500168], [-0.004510046448558569, -0.4614952504634857, -0.28619518876075745, 0.024159014225006104, -0.21946153044700623, -0.09147519618272781, -0.02486482821404934, 0.22433516383171082, -0.4063682556152344, -0.2056887298822403], [0.007636774331331253, -0.781281590461731, -0.38664641976356506, -0.02457554265856743, -0.1446426957845688, -0.22939008474349976, -0.09952177852392197, 0.17667196691036224, -0.42867133021354675, -0.300831139087677], [0.08347175270318985, -1.000396728515625, -0.34339219331741333, -0.03576650843024254, -0.23055461049079895, -0.11586242914199829, -0.08029656857252121, -0.1677589863538742, -0.5278352499008179, -0.7770511507987976], [0.12559235095977783, -0.8454049825668335, 0.22489087283611298, -0.34281763434410095, -0.5708445906639099, -0.261137455701828, -0.00600227527320385, -0.3869031071662903, -0.543662428855896, -1.414338231086731], [-0.14363352954387665, -0.5237327218055725, 0.47085678577423096, -1.0336313247680664, -0.3741976320743561, -0.6098285913467407, -0.09462574869394302, -0.5605133771896362, -0.7536481022834778, -0.9909800887107849], [-0.4161570966243744, -0.293386846780777, 0.5623046159744263, -0.4679468274116516, -0.3260681629180908, -0.5457506775856018, -0.6153386235237122, -0.49654021859169006, -0.7191110253334045, -0.4025537073612213], [-0.07655409723520279, -0.028448306024074554, 0.11436140537261963, -0.15846087038516998, -0.045724522322416306, -0.21350958943367004, -0.1648063063621521, 0.011290716007351875, -0.17030803859233856, -0.07317134737968445], [0.023573704063892365, -0.08070453256368637, -0.05687819793820381, -0.01627962291240692, -0.0414305217564106, -0.07481925934553146, 0.05115753412246704, 0.07579789310693741, -0.09960637241601944, -0.016942255198955536], [-0.018567148596048355, 0.10522061586380005, -0.00781331118196249, 0.00485600670799613, -0.09706759452819824, -0.02098936215043068, -0.029227364808321, -0.07699556648731232, -0.0452842116355896, -0.10907914489507675], [-0.3423069715499878, -0.012074076570570469, -0.298160195350647, 0.12846393883228302, -0.07765301316976547, -0.4320763647556305, -0.21343916654586792, -0.08702289313077927, -0.37424996495246887, -0.4617767632007599], [-0.78631591796875, -0.3699931800365448, 0.0971071869134903, 0.22964181005954742, -0.20025445520877838, -0.357336163520813, -0.6455013751983643, -0.26690199971199036, -0.9599136710166931, -0.43948718905448914], [-0.07295479625463486, -0.3466640114784241, 0.10923228412866592, -0.007211465388536453, -0.3363354504108429, -0.3166094720363617, -0.9173150062561035, -0.13717544078826904, -1.1626991033554077, -0.20327813923358917], [0.05241908133029938, -0.5314760208129883, 0.16867077350616455, -0.06422129273414612, -0.2249635010957718, -0.3238091766834259, -0.2014571726322174, -0.2659435272216797, -0.7196241021156311, -0.2019553929567337], [0.03482033312320709, -0.7732707858085632, 0.10724040120840073, -0.24786488711833954, -0.07144642621278763, -0.34329164028167725, 0.04152468591928482, -0.03494434431195259, -0.37558117508888245, -0.18518657982349396], [0.10163657367229462, -0.7352943420410156, -0.0928790345788002, -0.4077759087085724, 0.09021095931529999, -0.5361252427101135, 0.13750454783439636, -0.024953365325927734, -0.19635581970214844, -0.08653930574655533], [0.22810333967208862, -0.46757370233535767, -0.23644785583019257, -0.49899742007255554, 0.2888796031475067, -0.36308860778808594, 0.1384270191192627, -0.20180991291999817, -0.05331756919622421, -0.0331626795232296], [0.20551356673240662, -0.21227970719337463, -0.03691503405570984, -0.3026052713394165, 0.05799098685383797, -0.40280330181121826, 0.2466103583574295, -0.30690187215805054, -0.040070850402116776, -0.1824510395526886], [0.09325896948575974, -0.2496923804283142, 0.028504470363259315, -0.2705274820327759, -0.06796091794967651, -0.2769347131252289, 0.2258537858724594, -0.43061563372612, -0.1306832879781723, -0.04385767877101898], [-0.006125770043581724, -0.2332366406917572, 0.0926482230424881, -0.20434461534023285, -0.13098064064979553, -0.22445489466190338, 0.37194839119911194, -0.6092429161071777, 0.007683738600462675, 0.009197987616062164], [-0.41566067934036255, -0.15245236456394196, 0.16081419587135315, -0.02968268096446991, -0.00847042165696621, -0.16361075639724731, 0.04285160452127457, -0.39078474044799805, 0.11305288970470428, -0.14975450932979584], [-0.9416101574897766, 0.25614070892333984, 0.22056682407855988, 0.04365541413426399, -0.08964896202087402, -0.2584662139415741, -0.03693344444036484, -0.2226925641298294, 0.17234812676906586, 